label,embed_0,embed_1,embed_2,embed_3,embed_4,embed_5,embed_6,embed_7,embed_8,embed_9,embed_10,embed_11,embed_12,embed_13,embed_14,embed_15,embed_16,embed_17,embed_18,embed_19,embed_20,embed_21,embed_22,embed_23,embed_24,embed_25,embed_26,embed_27,embed_28,embed_29,embed_30,embed_31,embed_32,embed_33,embed_34,embed_35,embed_36,embed_37,embed_38,embed_39,embed_40,embed_41,embed_42,embed_43,embed_44,embed_45,embed_46,embed_47,embed_48,embed_49,embed_50,embed_51,embed_52,embed_53,embed_54,embed_55,embed_56,embed_57,embed_58,embed_59,embed_60,embed_61,embed_62,embed_63,embed_64,embed_65,embed_66,embed_67,embed_68,embed_69,embed_70,embed_71,embed_72,embed_73,embed_74,embed_75,embed_76,embed_77,embed_78,embed_79,embed_80,embed_81,embed_82,embed_83,embed_84,embed_85,embed_86,embed_87,embed_88,embed_89,embed_90,embed_91,embed_92,embed_93,embed_94,embed_95,embed_96,embed_97,embed_98,embed_99,embed_100,embed_101,embed_102,embed_103,embed_104,embed_105,embed_106,embed_107,embed_108,embed_109,embed_110,embed_111,embed_112,embed_113,embed_114,embed_115,embed_116,embed_117,embed_118,embed_119,embed_120,embed_121,embed_122,embed_123,embed_124,embed_125,embed_126,embed_127,embed_128,embed_129,embed_130,embed_131,embed_132,embed_133,embed_134,embed_135,embed_136,embed_137,embed_138,embed_139,embed_140,embed_141,embed_142,embed_143,embed_144,embed_145,embed_146,embed_147,embed_148,embed_149,embed_150,embed_151,embed_152,embed_153,embed_154,embed_155,embed_156,embed_157,embed_158,embed_159,embed_160,embed_161,embed_162,embed_163,embed_164,embed_165,embed_166,embed_167,embed_168,embed_169,embed_170,embed_171,embed_172,embed_173,embed_174,embed_175,embed_176,embed_177,embed_178,embed_179,embed_180,embed_181,embed_182,embed_183,embed_184,embed_185,embed_186,embed_187,embed_188,embed_189,embed_190,embed_191,embed_192,embed_193,embed_194,embed_195,embed_196,embed_197,embed_198,embed_199,embed_200,embed_201,embed_202,embed_203,embed_204,embed_205,embed_206,embed_207,embed_208,embed_209,embed_210,embed_211,embed_212,embed_213,embed_214,embed_215,embed_216,embed_217,embed_218,embed_219,embed_220,embed_221,embed_222,embed_223,embed_224,embed_225,embed_226,embed_227,embed_228,embed_229,embed_230,embed_231,embed_232,embed_233,embed_234,embed_235,embed_236,embed_237,embed_238,embed_239,embed_240,embed_241,embed_242,embed_243,embed_244,embed_245,embed_246,embed_247,embed_248,embed_249,embed_250,embed_251,embed_252,embed_253,embed_254,embed_255,embed_256,embed_257,embed_258,embed_259,embed_260,embed_261,embed_262,embed_263,embed_264,embed_265,embed_266,embed_267,embed_268,embed_269,embed_270,embed_271,embed_272,embed_273,embed_274,embed_275,embed_276,embed_277,embed_278,embed_279,embed_280,embed_281,embed_282,embed_283,embed_284,embed_285,embed_286,embed_287,embed_288,embed_289,embed_290,embed_291,embed_292,embed_293,embed_294,embed_295,embed_296,embed_297,embed_298,embed_299,embed_300,embed_301,embed_302,embed_303,embed_304,embed_305,embed_306,embed_307,embed_308,embed_309,embed_310,embed_311,embed_312,embed_313,embed_314,embed_315,embed_316,embed_317,embed_318,embed_319,embed_320,embed_321,embed_322,embed_323,embed_324,embed_325,embed_326,embed_327,embed_328,embed_329,embed_330,embed_331,embed_332,embed_333,embed_334,embed_335,embed_336,embed_337,embed_338,embed_339,embed_340,embed_341,embed_342,embed_343,embed_344,embed_345,embed_346,embed_347,embed_348,embed_349,embed_350,embed_351,embed_352,embed_353,embed_354,embed_355,embed_356,embed_357,embed_358,embed_359,embed_360,embed_361,embed_362,embed_363,embed_364,embed_365,embed_366,embed_367,embed_368,embed_369,embed_370,embed_371,embed_372,embed_373,embed_374,embed_375,embed_376,embed_377,embed_378,embed_379,embed_380,embed_381,embed_382,embed_383
alarm_set,0.02313289,0.07731107,-0.07087212,0.026277708,0.013786112,0.036874793,0.19018702,0.048506074,0.025975963,-0.062737204,-0.00082430086,-0.029576207,0.053200256,-0.029780414,-0.024464695,-0.008558626,-0.0110339755,-0.067437604,0.013772969,-0.020477042,-0.026469465,0.049627263,0.099071555,0.057067808,-0.062983446,-0.053655565,0.062935926,0.039115556,-0.04731848,-0.048734322,0.032770228,-0.030028345,0.07849958,-0.036380116,0.023234194,0.020274848,0.09373793,0.018434819,-0.041866772,-0.0058625964,-0.0010161257,-0.03678055,-0.025217526,-0.0012328862,-0.11557574,0.08751964,0.0053948383,0.015311621,0.042540167,-0.05408627,0.029274361,0.00717305,-0.021743964,-0.028919829,0.028999308,0.097710684,0.018885251,0.023316246,0.020304356,0.001450777,-0.009218616,0.0076697245,-0.025629057,0.01794858,-0.070134096,0.025787286,-0.0629584,0.04349874,0.10852674,-0.012315108,-0.051980805,0.049019154,0.074090585,0.03446878,-0.029294116,0.009864001,0.06057661,-0.04774703,-0.031858236,-0.003356192,-0.13436672,-0.07520059,-0.0033392874,-0.016264567,0.078765005,-0.042066164,0.0037746825,0.016850254,-0.011313412,-0.011309869,-0.014071259,-0.058069512,0.022458522,0.028641604,-0.012778648,0.042385116,0.014764846,-0.030523742,-0.07502875,0.07114469,-0.008564966,0.032025047,-0.04870364,0.07307427,-0.022757094,-0.04272376,-0.055085015,0.012127898,0.038085047,-0.074148275,-0.0010903329,-0.06354564,0.07984141,-0.02873809,0.06991077,0.02025303,-0.04621304,0.10087958,0.043292865,0.08158795,0.15894112,-0.057957985,-0.024601338,-0.044789914,0.011457047,-0.0144405905,0.027818391,-3.353698e-33,0.016293606,0.060632356,-0.09651607,-0.026701102,0.03501187,0.022482648,-0.06399068,0.04203049,-0.028369248,0.077860706,-0.084196225,-0.010937676,-0.01692345,0.013040303,0.011690141,0.041571904,0.073710516,0.0043434096,0.05814688,-0.08327552,-0.062388744,0.048751958,-0.03142185,0.009016221,0.059162516,0.03563921,0.015577951,0.0316858,0.02447194,0.009074408,-0.009870964,0.03408303,-0.009955685,0.04093971,0.047231928,0.033875976,-0.052393902,0.009806077,-0.009056354,-0.12374779,0.060322966,-0.04461463,0.017959323,-0.006435295,0.047969293,-0.047328625,-0.006889342,0.10218661,0.049159158,-0.012115802,0.05326504,-0.04580123,-0.052681725,0.004484977,-0.10827652,-0.026226135,0.009565499,-0.02495268,0.028622089,-0.04662472,0.0048172027,-0.019948825,0.09816099,-0.037547786,0.036639933,-0.025913939,0.0005013683,-0.07359203,0.068082795,0.06867989,-0.034004383,-0.009440038,0.041022617,0.068656534,-0.08741644,0.013653825,0.026605364,-0.0008908632,-0.020434136,0.026154801,0.047596473,0.021623751,-0.047139052,-0.021258276,0.057158504,-0.02672109,0.0041442174,0.037736606,-0.08666977,0.07726665,-0.0909088,-0.032807697,0.009401088,0.051470652,-0.10196285,2.3054093e-33,0.024696326,-0.036377784,-0.09605858,-0.04832786,-0.00030641168,-0.034452394,0.06679191,0.0091802785,-0.09123592,0.06845274,0.021520596,-0.007128411,0.032961205,-0.030665316,0.07078564,-0.027992943,0.02792519,0.029617194,0.0012435581,0.014565009,-0.12088338,-0.007548343,-0.102875635,0.03425259,0.029354732,-0.005845412,0.025989136,0.08141471,-0.028690465,-0.06610971,-0.11879956,-0.017141392,-0.023793323,0.09461345,-0.034684744,-0.02964851,0.079696216,-0.033574983,-0.06828764,-0.037886992,0.04749772,0.09440949,-0.025555177,0.07448772,-0.041855365,0.051853158,0.07156616,0.078782886,-0.04016235,0.063423395,-0.04173968,-0.13131939,0.04105786,0.013885439,0.037217315,-0.016948506,-4.4014614e-05,-0.042501833,-0.007144527,-0.006659208,-0.016652323,-0.011879754,0.011148775,0.042452168,0.001912057,-0.010777467,-0.08296684,0.04420795,0.024082767,-0.037629407,0.10700546,-0.032340374,0.027803041,-0.015884478,-0.12053609,-0.028589832,-0.02390993,-0.046796847,-0.104942515,-0.01601668,-0.022090184,-0.035845805,0.016617741,0.02442485,-0.057850663,0.02904881,0.09791229,0.12587982,0.0023156756,0.027107015,-0.027125897,0.077564605,0.046190027,0.06577472,-0.041975025,-1.2594613e-08,-0.00888067,-0.008998876,0.06844991,-0.058276795,0.061527725,-0.08284064,0.009258927,-0.05044372,-0.076205306,-0.08549002,0.010924712,-0.02417044,0.012282393,0.022695767,-0.005816287,-0.066788934,-0.020372573,0.05455643,-0.029107649,-0.0339224,0.056477845,0.02460807,0.016588153,-0.060808975,0.08828095,-0.00063521316,-0.06653834,0.063327625,-0.022105943,0.044926807,0.02497228,-0.041699395,0.060120203,-0.011644362,-0.03917283,0.014516241,-0.011927612,0.015895654,0.013656285,-0.050850425,0.081507266,-0.03698229,-0.0148688415,0.02772919,-0.074935764,-0.077350594,0.013046048,-0.047675118,0.012482637,0.06481256,-0.038525,0.020991435,0.038525052,-0.011069611,0.03516133,-0.006251352,0.027395468,-0.053118143,-0.02728692,0.07064129,-0.019086726,0.030534578,-0.014320955,-0.042878997
audio_volume_mute,0.024845382,-0.025685495,-0.026771726,-0.08592704,-0.05566394,-0.072548516,0.042227622,-0.02763043,-0.003178645,-0.019059224,-0.0136364605,-0.03984893,-0.010391502,-0.017672094,-0.072807096,0.0032214453,-0.029295366,0.07920811,-0.036891907,-0.043313865,0.047365215,0.12103984,0.016548557,0.08453616,0.036934424,-0.024996608,0.0144280605,0.042515963,-0.00779582,-0.030034322,0.06855609,-0.010300279,0.1079248,-1.8095112e-05,-0.037756316,-0.04110904,0.015317347,-0.09028864,0.012915142,-0.020295104,-0.06709296,0.0012278156,-0.033431377,-0.047973435,-0.17095788,-0.04058958,-0.05308201,-0.0075516836,0.045111373,-0.03814886,-0.0085642245,-0.043416765,-0.019384751,0.0061837602,-0.0004440085,0.010902541,0.01775721,0.025963148,-0.044758387,-0.02601442,-0.072483435,0.022966938,0.044831093,0.0017658909,-0.026626127,0.031876214,-0.027017273,0.016517546,-0.029663945,0.0440199,-0.028411053,0.05031343,0.054970995,-0.016042601,0.052996967,-0.00029566363,0.020912977,-0.04321786,-0.098407276,0.10459707,-0.04963305,-0.037981257,-0.065982796,-0.02881661,-0.05448835,-0.011089117,-0.012796691,-0.039606407,-0.02764153,-0.08505973,-0.034438252,0.020892706,0.026049998,0.06478847,0.011609433,0.0027868338,-0.025453653,0.00057420303,-0.008149445,0.025257794,0.0073807356,-0.009689642,-0.047503557,-0.012311965,0.013970249,-0.010151322,-0.0159904,0.037569907,-0.08436082,-0.0328032,0.022421215,0.007867608,0.030006047,0.05458573,0.05749315,0.10865916,0.0432634,0.027282668,0.032047838,0.0114161465,0.039600395,-0.04279801,-0.08807039,-0.023827676,-0.018069234,-0.02446215,-0.013432279,-4.1005148e-33,0.007927981,-0.052806184,0.00046097874,0.00049658073,0.01619969,0.015733205,-0.015027971,0.004035934,-0.04203838,-0.013090363,0.024428183,0.016568875,-0.007520847,-0.07176852,-0.04424417,-0.018323636,0.05468991,0.12795165,-0.044495508,-0.08757593,0.040807795,0.042129636,0.02912273,0.1168324,0.10195226,0.02125267,-0.009140391,-0.066260055,0.067902684,0.006561607,-0.105435304,0.0626551,0.014106291,-0.020754676,0.020403279,0.01731563,0.0050839474,0.14480497,-0.02476997,-0.059856046,-0.00505128,-0.031681232,-0.056194138,-0.06869935,0.002135685,-0.0053816666,-0.046337157,0.04166361,0.013128856,0.009544168,0.019878967,-0.0037969446,-0.01778443,0.034912843,0.034357376,-0.08755811,0.027226033,-0.0073726047,0.0015304325,-0.063120335,0.08690265,0.058549657,0.11144026,-0.09134198,-0.021160781,0.06501265,0.04984964,-0.008555718,0.059921797,-0.055610314,-0.032488767,0.051317297,-0.052784838,0.037917692,-0.07560447,-0.017266097,0.029497752,-0.092661545,0.056250654,0.028853094,-0.025489334,0.07200077,-0.09235783,-0.034145318,-0.06440521,-0.009508279,0.025741756,0.07078032,-0.060251497,-0.036269438,-0.14080463,-0.04034554,-0.040908188,-0.1424476,-0.06443704,9.200642e-34,-0.017160835,0.011549612,-0.0024511423,0.05074336,-0.009660015,0.015392291,0.08011629,0.046922408,-0.04223956,0.0058906106,0.09124946,-0.018740425,-0.070757456,0.0302412,0.104588315,-0.05166801,-0.05628998,0.028905695,-0.01287723,0.06206184,-0.044143043,0.05016134,0.0041343546,0.06610294,-0.09632907,-0.06317226,-0.043283813,0.04116428,0.046786256,-0.058002118,0.022591507,0.08994336,-0.08581274,-0.017756775,0.044441074,0.003534778,-0.010393123,0.06547975,0.0063112653,-0.06301469,0.016719013,0.08242311,0.051067196,-0.011725022,-0.029227264,-0.011059236,0.1033385,-0.058347747,0.013371028,-0.0813264,0.041242372,-0.014205503,0.12726267,-0.0206893,0.043053906,0.05172073,0.02252608,0.005601133,-0.021272045,-0.032216106,0.022632055,-0.0037007148,-0.087721474,-0.04212615,-0.061179668,0.06439965,0.040417474,0.02698914,0.08518716,-0.0008991038,0.09433869,0.06827824,0.11463428,0.049711943,-0.03127153,0.05284368,-0.14258975,-0.021168018,-0.065798156,0.030934803,0.014977408,0.04363675,0.007952487,0.02252053,0.008092052,0.014742623,0.019784702,-0.014391443,-0.021857766,0.030809771,-0.035760835,0.04042143,0.004549195,0.021220818,0.0027446235,-1.3590986e-08,0.09038926,0.016969258,0.049386818,0.0031552545,-0.02919599,-0.11063327,0.023758367,-0.05647368,-0.067255266,0.08107019,0.032616433,-0.07250091,0.037383366,0.09585068,-0.0006242105,0.027108692,-0.04307602,0.10447283,0.032038305,-0.09983003,0.04387633,0.01813685,-0.009240547,-0.019870237,0.08204865,-0.018158415,0.01905652,0.009136544,0.005048347,-0.0597955,0.042917833,0.007448938,-0.03991615,0.02312188,-0.03423847,0.0033292607,-0.026251798,0.036522,-0.063861474,-0.03808305,-0.06197004,-0.033121113,0.0313571,-0.0041392837,0.063480616,0.04674968,0.079877645,0.052446023,-0.0070553194,0.031187464,-0.06334337,0.104089975,0.040632695,-0.0049699703,0.020241195,0.03139014,0.020420764,0.08497685,-0.08003421,-0.03394997,0.02099548,0.009502862,-0.05771511,0.0067930534
iot_hue_lightchange,-0.05636704,0.00781731,0.07253949,0.03193192,0.08794946,-0.079055876,0.1138071,-0.0032532243,0.0026931844,-0.0056585926,0.045012653,-0.048076328,0.0060889,-0.030584164,0.04310501,0.10409949,0.017440107,-0.08762016,-0.054170813,-0.05932314,-0.024279565,0.009220542,-0.0026024857,-0.054643642,-0.042722803,-0.0318469,0.06142148,-0.01391662,-0.026138037,-0.08525703,0.04788765,0.010653014,0.010092277,-0.014639233,-0.041664906,-0.008124464,0.029536307,-0.1103192,-0.08977166,0.052354395,0.013178074,-0.0960006,-0.036769595,-0.04984193,-0.015283122,0.03781077,-0.0008143447,-0.0672729,-0.034797836,-0.05633344,0.03966683,-0.03172772,-0.03789833,0.025035923,-0.0016655965,0.061092034,0.006879961,0.059785653,0.096574396,-0.044943403,0.013741011,0.040627077,0.008057806,-0.033094097,-0.04632854,0.08145497,-0.0049884734,-0.05696285,-0.03397073,-0.093013875,0.013963929,0.022302177,-0.007995979,0.04643561,0.06735061,-0.039889224,0.07080087,0.028937215,-0.012041815,-0.07805887,0.021282654,0.03216134,-0.00093757076,0.03609583,0.13738114,0.012162899,-0.044954292,0.063808896,-0.009322226,0.017369725,-0.067017786,0.021098888,-0.015659627,-0.0185606,-0.011222537,0.003058416,-0.0646513,-0.07253417,-0.034490064,0.011504722,0.035622496,-0.019438475,-0.11640371,0.09302692,0.019044599,-0.025546717,-0.02128092,0.06296404,-0.014303134,0.022132322,0.10495348,-0.046667174,0.018689083,-0.07473532,-0.015382656,0.055862606,-0.021277841,0.06622161,-0.014434503,0.0656752,0.099720575,-0.036196537,-0.08980203,-0.016507624,-0.00836925,-0.03850859,0.029362736,-6.077351e-34,0.08289548,0.024751345,-0.07726263,0.017217463,0.0196014,0.01165179,0.03628578,-0.043164965,-0.07265421,-0.11856045,0.017987162,0.059549265,-0.07503566,-0.00877116,0.022517184,-0.09938366,0.05543852,0.011494204,0.011434061,0.020574486,-0.058120925,0.037396505,-0.03237966,-0.01566573,-0.0239761,0.08418447,0.01387751,0.0127741285,0.07396194,0.0012202628,0.029392589,0.030707799,0.083689764,0.059505835,0.005702117,-0.05287691,-0.03000617,-0.01575372,-0.0012718951,-0.016132694,-0.025028128,0.06814538,-0.11776346,-0.00710758,0.02118722,0.034802645,0.015022491,-0.0398246,0.04503891,-0.042955175,-0.11014827,-0.047886856,-0.051504422,-0.002264522,0.02147359,0.01226295,-0.00862546,0.019090977,0.07033536,-0.06529338,0.052236535,0.033325218,0.0923124,0.006492195,0.07936177,0.015855204,0.023875657,-0.01062951,-0.048002817,0.0233015,-0.036859125,-0.0019090405,0.04145943,0.026395613,-0.0025232146,-0.048911825,0.020816892,-0.0034069086,-0.058125857,-0.020508336,-0.007455182,-0.031185567,0.025289489,-0.054516137,0.024704563,-0.03096174,-0.007386551,0.015446605,-0.11528387,0.035641737,0.048010234,0.045708917,0.0575052,-0.08850386,-0.13050948,1.6492943e-34,-0.047658425,0.00042097757,-0.11037476,0.07299722,0.017985769,-0.017228138,0.0150084095,0.042862877,0.046232495,0.13355687,0.12770225,-0.004893738,-0.08608185,-0.10562524,0.019583374,0.0074217124,-0.0026135189,0.030055154,-0.029160216,0.040523183,-0.15443529,-0.0033356287,0.027613267,-0.011717582,-0.06571809,0.065184474,0.044204947,0.015615825,-0.03391587,-0.08220997,-0.10953168,0.028547388,-0.018730927,0.045827493,0.09159656,0.02431649,0.091184065,-0.075629205,-0.07968288,0.065556586,0.060516614,-0.03131824,0.021254463,-0.00669988,-0.10465992,0.04871685,-0.09297256,0.027848314,-0.012707774,-0.037886642,0.12336649,-0.031544156,0.016968159,0.024859834,-0.03152635,0.044643354,0.11151819,0.057682507,-0.026154596,0.04155703,0.05839623,-0.06924005,0.008344563,0.08291971,0.0057729343,0.057008848,-0.026908692,0.008667087,0.0984991,-0.0061820615,0.012039015,-0.05191022,0.058647595,-0.05713826,0.04100906,-0.03649475,0.024446249,0.008553482,-0.030063672,0.007631564,-0.03280586,-0.033619247,0.0332334,-0.07185121,0.0024069557,-0.082649395,-0.015262393,0.07450895,-0.037298296,-0.036321644,-0.08461853,0.041851804,0.031380013,0.028292911,0.035816338,-1.5063303e-08,0.009663406,-0.09955573,0.005360709,0.05559967,0.052336235,-0.064651296,0.07481106,-0.002509901,-0.021263089,0.03937176,-0.03323591,0.042800188,0.030912178,-0.014498103,0.08711732,-0.011583816,-0.0045063677,-0.020174934,0.023177767,-0.0241944,-0.006570873,0.021344325,0.008791313,-0.050652664,0.02592127,0.04890068,0.017133376,0.060984857,-0.017978627,-0.009332204,0.039444212,0.0038313083,0.019747129,-0.029287532,-0.03297539,0.036489796,-0.09949005,0.0073432685,0.020983292,-0.005432725,-0.042666484,0.06993316,-0.05632999,0.006965025,-0.028917817,-0.009369192,0.027354443,0.014764184,-0.0026964692,0.018427234,-0.025578037,-0.008751208,0.022420943,-0.034075618,-0.01474402,-0.059753392,0.09657097,-0.0600985,0.001025342,0.036899574,0.061729793,0.012831937,0.027351191,0.023944778
iot_hue_lightoff,-0.028213559,0.03349343,0.059140395,0.047705647,0.08834297,-0.113707334,0.09982453,0.005310624,-0.0030126092,-0.012908226,0.047634248,-0.00935841,-0.010956952,-0.025730958,0.018936656,0.10633194,0.049895987,-0.14639789,-0.032032687,-0.052532747,-0.014035089,0.026817545,-0.017966777,-0.047169194,-0.03536693,-0.012756559,0.05200307,-0.023752,-0.048459135,-0.07426405,0.05029625,-0.0035351191,0.022244148,-0.025844859,-0.010788422,-0.010186777,0.031947456,-0.086950414,-0.103825,0.044096284,0.01450546,-0.07370794,-0.04260603,-0.03034206,0.00018435558,0.043207373,0.010590848,-0.085237406,-0.01815932,-0.045339834,0.033110287,-0.0042412286,-0.03413378,0.016706701,0.029099137,0.036131293,-0.021376992,0.04182384,0.07587123,-0.021267952,0.00017467285,0.04132348,0.006857768,-0.02818014,-0.011583242,0.077689365,0.010265677,-0.060756024,-0.045849778,-0.069091015,0.01596967,0.04053532,-0.04008615,0.059706032,0.08455648,-0.008995306,0.061485507,-0.025571015,0.006547738,-0.059619624,-0.009400587,0.009702435,0.009724314,0.050826922,0.07750017,0.030549396,-0.016835866,0.05636432,-0.011173983,0.016926395,-0.086172566,0.019455621,-0.0070563,0.027057867,0.008548427,-0.018369403,-0.024322484,-0.110293105,-0.09959443,0.015005577,0.03538832,-0.010378033,-0.066440694,0.071288176,0.008740214,0.0021944959,-0.0015506418,0.064151205,-0.016069291,-0.0115375025,0.08603768,-0.041225847,-0.004072439,-0.055671524,-0.007351351,0.051424794,-0.02102315,0.0760307,0.02036982,0.042977594,0.07676563,-0.06108869,-0.09382057,-0.04772681,0.0071235783,-0.0355683,0.027512735,-8.328118e-34,0.08449346,0.037168797,-0.09114373,0.03971299,0.06297685,-0.010060751,0.016854184,-0.036361128,-0.08607449,-0.06685533,0.019945195,0.027496012,-0.08635614,-0.02544032,0.05319176,-0.09154407,0.07633547,0.024190683,-0.017168999,0.058447935,-0.024986193,0.015145939,-0.026112702,-0.033658482,0.00950329,0.08570925,-0.0024011007,-0.0034163042,0.050247222,0.014327656,0.018805245,0.039440114,0.074601345,0.033215083,0.02198096,-0.04960852,-0.026886046,-0.0022477685,-2.8069253e-05,-0.009126166,-0.07332857,0.09385392,-0.11558319,-0.00891298,0.036375638,0.011578701,0.03839913,-0.059286606,0.029419042,0.012647111,-0.12237573,-0.03752984,-0.03209224,-0.006682821,0.003140708,-0.014632297,-0.001582684,-0.007876516,0.02923087,-0.054829273,0.046322055,0.017693289,0.073166095,-0.014469094,0.06439014,-0.01051647,-0.004649765,-0.0033454932,-0.04074386,0.03540509,-0.02341051,-0.010232888,0.07058401,0.0026507636,-0.02035913,-0.03933134,0.03532432,-0.018085111,-0.0642068,-0.0015845327,0.008752349,-0.035184126,0.03322892,-0.091157466,0.007912327,-0.030036762,-0.039667133,0.004120315,-0.129939,0.055499192,0.011915071,0.068303615,0.029719356,-0.089508764,-0.17170139,2.7540338e-34,-0.06640927,0.009580388,-0.098839626,0.048179496,-0.013620857,-0.02132906,0.009746972,0.054558888,0.023552526,0.15112385,0.120520525,0.011661243,-0.05409681,-0.114854746,0.0214226,-0.01374653,0.030255372,0.020857012,-0.038363118,0.07709049,-0.16270725,-0.023161137,0.015487185,-0.01372382,-0.066440046,0.094021894,0.01452692,0.003571665,-0.02097284,-0.08948873,-0.07528308,0.015369299,0.03363324,-0.022163112,0.07566773,0.052669886,0.060697377,-0.05693126,-0.074302934,0.028001983,0.09403542,0.00297601,-0.017563468,-0.016203115,-0.09674799,0.030998515,-0.08454798,0.024840875,-0.036034025,-0.031593222,0.10695085,-0.0019697894,0.03727243,0.04420612,-0.042326827,0.008400876,0.105193876,0.090084456,-0.023171427,0.027836116,0.112022184,-0.06645078,-0.0015509737,0.08516342,0.014635407,0.034337305,0.009062053,0.055008326,0.08728926,0.008585778,-0.01539713,-0.044111256,0.0712399,-0.04046757,0.04707843,0.013033475,0.0032354316,0.019004771,-0.044837918,0.014801191,-0.012958912,-0.028534967,-0.011181955,-0.055143822,0.06108929,-0.09240573,-0.0038631784,0.053711485,-0.05223254,0.006439124,-0.08104158,0.037444986,-0.0064223655,0.07723805,-0.0059126774,-1.5076854e-08,0.013380962,-0.13488913,0.019103402,0.036834106,0.037757058,-0.057500884,0.07306336,-0.0015725603,-0.014150459,0.050105914,-0.027785199,0.027978182,-0.008110506,-0.015760032,0.11792018,0.005438866,-0.033355817,-0.016627185,0.02322985,-0.016155802,-0.033797063,-0.025152477,-0.043769807,-0.046246007,0.052449413,0.04986066,0.012872173,0.05478433,-0.0066047874,-0.0040197438,0.0034277597,0.014810911,0.0027089699,-0.029024607,-0.03627557,0.050519437,-0.05836123,0.044876304,0.0122569045,-0.01682918,-0.068149365,0.08278356,-0.043984473,0.018453041,0.034647096,-0.009364503,0.009598591,0.053340636,-0.0141862985,0.012435207,-0.021817347,-0.007725999,0.017582715,-0.045422584,-0.016568432,-0.07614628,0.09524584,-0.05369677,-0.025659684,0.046419915,0.0817192,-0.0033817037,0.0004941024,0.03985759
iot_hue_lightdim,-0.033319168,0.018473348,0.020238852,0.03409813,0.05461158,-0.11638689,0.12442939,0.028439231,0.0021258383,-0.030442767,0.08049171,-0.046103943,0.027359404,-0.024415303,0.018485395,0.09047277,0.012019065,-0.10458087,-0.05138829,-0.051889073,-0.005429234,0.023423847,0.0052175918,-0.04381774,-0.044617586,-0.0073751947,0.07278507,0.003666578,-0.0007284525,-0.080670066,0.06404739,0.034783173,0.046058692,0.0020076167,0.0029566952,-0.008580875,0.026314657,-0.11714954,-0.09529936,0.031830233,0.011400933,-0.07575269,-0.021461869,-0.017207641,-0.0072744405,0.035111047,-0.020119954,-0.065721914,-0.04214715,-0.06149082,0.02120726,-0.029506342,-0.065303124,0.07591948,0.03477051,0.005148961,-0.03892677,0.025814297,0.09249383,-0.013853502,0.0045803,0.044083312,0.021144833,-0.046235953,-0.016398968,0.07272261,-0.020052098,-0.062946886,-0.04168007,-0.07570223,0.008623978,0.04073054,-0.025398478,0.076971985,0.06930928,-0.025599847,0.04197509,-0.004774298,-0.021101283,-0.07592875,-0.00541153,0.051576365,0.0076486976,0.06220324,0.11602111,0.03929718,-0.06120384,0.07612447,-0.009611042,0.008985898,-0.06429747,0.022443008,-0.0659735,0.013784742,0.003510256,-0.0061797625,-0.023401797,-0.1316763,-0.057054058,0.017168628,0.047444407,-0.020091563,-0.098975696,0.091552526,-0.0040031914,-0.019300325,0.0133530805,0.078604765,-0.006076074,0.0128564555,0.08467403,-0.03951862,-0.012652773,-0.054984175,0.027859122,0.040969513,-0.045600414,0.077452764,0.024526041,0.036445547,0.074714676,-0.044931684,-0.10245724,-0.031509828,-0.0058654146,-0.032429207,0.0073545445,-6.5687207e-34,0.08511903,0.071601145,-0.05862351,0.030977672,0.0018081835,0.025775908,0.03505724,-0.035400163,-0.082251646,-0.070592426,-0.034696642,0.04285295,-0.07770839,0.0056208796,0.021327967,-0.08352879,0.076426916,0.045457076,-0.02369432,0.04020015,-0.03587083,0.058506086,-0.024458058,-0.008837398,0.01213372,0.06703025,-0.010671559,0.0008312366,0.07150161,0.01937542,0.029705696,0.042737946,0.067554474,0.040611036,0.025441287,-0.017498692,-0.020506183,0.008273197,-0.024968475,-0.028790304,-0.028567694,0.09303138,-0.074372455,-0.019232625,-0.004874772,0.047188383,0.028207881,-0.06711184,0.02634002,0.0010783401,-0.12806685,-0.036757987,-0.03585949,-0.022948615,0.021954956,-0.03147823,0.0046575153,0.014683148,0.05772191,-0.030861259,0.027083922,0.012807621,0.05352891,0.01013846,0.046010107,-0.040746883,0.021021325,-0.016755223,-0.028140027,0.033563666,-0.02491602,0.0007645707,0.06832293,0.0072270595,-0.0064222747,-0.05082341,0.045936808,-0.014015797,-0.08821268,0.014850396,-0.061732844,-0.038775384,0.010696921,-0.08255783,-0.0013622089,-0.033103697,-0.013089063,-0.016826687,-0.110215314,0.0150799835,0.006453792,0.04942553,0.04664666,-0.09708579,-0.18686421,5.7878435e-34,-0.03758577,0.019559221,-0.11481786,0.030559447,-0.011497103,-0.020921733,0.028055487,0.06990725,0.0094236545,0.116606995,0.10267085,0.00885442,-0.06918593,-0.13280109,0.07149609,0.016291767,0.00023019589,-8.8939254e-05,-0.02008837,0.038187824,-0.17701818,-0.023568714,0.024329389,-0.0065804943,-0.0702091,0.09268428,0.054373574,-0.015514451,-0.053998154,-0.06958112,-0.07196446,-0.021759005,-0.012517272,0.016929416,0.07681397,-0.0040008505,0.11536065,-0.06899107,-0.087658785,0.026837364,0.058956865,-0.025181845,0.0065793646,-0.010978393,-0.10017795,0.011602181,-0.03327284,0.019230334,0.006679768,-0.029352598,0.13468485,-0.015035592,0.016846593,0.03333268,-0.014533337,0.022951614,0.07905387,0.09118523,0.019673724,0.012243161,0.082201615,-0.10607998,-0.0119805755,0.075749256,-0.015542498,0.03303262,-0.0075340895,-0.00042342138,0.04851173,0.027370146,-0.010903302,-0.04633384,0.033466216,-0.006970187,0.009830456,-0.03611806,0.030082341,0.017339293,-0.02157399,0.043630205,0.00070654624,-0.011217438,0.038336553,-0.034117576,0.031396918,-0.10098238,0.049187087,0.059149098,-0.050368614,-0.019561205,-0.061736256,0.055777565,0.013963334,0.046330914,0.025250487,-1.5021591e-08,0.0037498765,-0.13142973,-0.019992387,0.037151147,0.040934455,-0.08102854,0.068959676,0.0392162,0.0057151024,0.0720407,0.0028448165,0.001284356,-0.02825615,-0.019521987,0.10763913,-0.044837944,-0.01195413,-0.013307885,0.027925113,-0.016175255,-0.010335552,0.008945927,0.002702496,-0.073458344,0.04136048,0.05069943,0.010534786,0.05175843,-0.012319789,-0.009332512,0.046286438,0.007966741,0.018937342,-0.039803755,-0.03469225,0.052166104,-0.095644,0.038045898,0.015816526,0.011045918,-0.06590158,0.059455145,-0.0015475417,0.007772709,0.047175623,-0.0043769223,0.0309985,0.038777016,-0.006412977,0.02755439,-0.04609648,-0.009614614,0.025525177,-0.019639067,-0.03751612,-0.061128534,0.06512896,-0.041691817,-0.01114865,0.058596794,0.07870099,0.052419767,0.01126007,0.024224538
iot_cleaning,-0.062716044,0.055384964,0.075364426,0.00037098496,0.043311518,-0.19009684,0.12848958,-0.029736716,-0.049090713,0.016684229,0.0068109287,0.03439514,0.024626449,-0.008013549,-0.045385532,0.03659299,0.0070134234,-0.07321799,0.011160626,-0.020245163,-0.03913858,0.09372051,0.025059285,-0.033170294,-0.02509432,0.0020953245,0.07888697,-0.06643457,0.003948988,-0.04839784,0.09711065,0.038859166,0.023636963,-0.010021352,0.0087476075,0.06875882,0.054885387,-0.057805035,-0.01794605,0.010544339,0.035358578,-0.080820836,-0.13683759,0.009180405,-0.018526435,0.06738697,-0.07355529,-0.07438171,-0.09162789,-0.05882796,0.026667977,0.02350652,-0.08034445,0.034545437,0.035113994,-0.053221308,0.004407601,-0.02352559,-0.024463922,0.0002692281,0.04022439,0.041084543,0.0020627452,0.009677391,0.043820992,0.09213359,0.019788323,0.03863805,0.013899829,0.001898049,0.0016797645,0.040247574,-0.087049805,0.017718522,0.027205342,-0.00963104,-0.00615804,-0.09903442,-0.04344296,-0.020671615,-0.048825596,-0.048406452,0.036545828,-0.044892058,0.0356368,0.07491682,-0.026946113,-0.024985401,0.07994771,-0.024039485,-0.02880486,0.00655777,0.006664516,0.0026912023,0.029880118,0.029003944,0.027911553,-0.07196794,-0.04822086,0.08784222,-0.050542194,0.04029645,-0.09268014,0.030602504,-0.0055941516,0.035969302,-0.024756974,0.03121499,-0.02572252,-0.013055791,-0.01834915,-0.06997621,-0.053069968,0.03332096,0.011905671,0.03684337,0.059782065,0.11054139,-0.012341708,0.11278207,0.060715202,-0.039337065,-0.0947637,0.033550557,0.04840922,0.0014680299,0.048390586,-2.681988e-33,0.026293412,0.043341067,-0.066258825,-0.016828734,0.015963724,0.038060386,0.056226324,0.006659433,0.040525116,0.060365755,0.010047569,0.009821694,-0.049049444,-0.033238642,0.056505065,-0.04302186,0.030386653,0.008256084,0.026194716,-0.013621945,0.035110775,0.03465937,-0.10515278,-0.01589392,0.06486971,0.0018326577,0.04478403,0.025838312,0.05499722,0.009481426,0.042479374,-0.0019446932,-0.05102422,0.09496293,-0.00978992,-0.009481583,-0.08026661,-0.002465731,-0.019072117,-0.031084,-0.04966036,0.05611011,-0.08838253,-0.09072588,0.014298372,-0.06904922,-0.03156605,0.0031998833,0.065230556,-0.059279338,0.0073376535,0.0045455056,-0.025396898,-0.03022945,-0.0645061,-0.02818706,0.056824937,-0.035955414,0.039835397,-0.020359172,0.035295848,-0.012658823,0.025911087,0.0144803645,0.093993954,-0.04166122,0.0836288,0.01713212,0.06909597,0.037772253,-0.07497106,0.029323794,-0.014586338,0.01767903,-0.061737396,-0.050626326,0.040838618,-0.008908356,-0.04993608,-0.020121941,0.054916594,0.0041192775,0.025350364,-0.050380945,-0.010457328,-0.06454443,-0.016584788,-0.025585616,-0.044618383,0.062856115,0.038454004,0.042669542,-0.039367348,-0.040052153,-0.12149669,9.693525e-34,0.01641801,-0.027055936,-0.002448429,0.060235057,-0.05856297,-0.028403841,0.039411403,0.02484278,-0.024597906,0.13489757,0.013112785,-0.04170452,0.019214962,-0.16353658,0.073088534,0.057544593,-0.016815599,-0.112405844,-0.028806007,0.052634794,-0.087194294,0.045831718,0.08040449,-0.022252856,-0.059326388,0.015010622,-0.0597598,0.023451388,0.00207345,-0.058153663,-0.07232114,-0.030141627,0.068639696,-0.0744842,0.072073184,-0.020662764,0.08191312,0.06939958,-0.015462372,-0.027855767,0.08651865,0.014089547,-0.0753531,0.05299703,-0.09070983,0.005286014,-0.10197806,0.046933293,-0.02395553,-0.049374573,0.03350115,-0.0035059198,-0.00073218695,-0.03432715,0.0037492476,0.08197018,0.06947499,-0.003187192,-0.07174806,-0.00096554426,0.099354595,-0.026566403,0.014304369,0.08221855,-0.02244284,-0.039564572,0.038750894,0.0025948114,0.04809153,-0.01774731,-0.026118819,0.009558607,0.021866607,-0.030260295,-0.01636009,-0.040529978,0.054877803,-0.011963388,-0.016763838,0.017694226,-0.032741867,0.040123872,-0.05739145,-0.03795181,-0.015029327,-0.11194035,0.006681703,0.048808236,-0.029562835,0.05097828,-0.07680381,-0.019865137,0.027186153,0.029140731,-0.051398538,-1.2943209e-08,0.035142872,-0.057145733,0.03149404,0.08134432,0.009344469,-0.06307398,0.038061596,0.111858286,0.026292974,0.012910184,-0.04672144,0.016099421,-0.09113791,-0.008185067,0.10286967,-0.057130862,-0.030321967,-0.020543894,-0.025251064,-0.033903018,0.06905875,-0.027312899,-0.0189556,-0.0019728122,0.056131177,0.08600811,0.03293552,0.07911508,-0.03549812,-0.009973362,-0.016279057,-0.043167822,0.025092075,-0.026812779,-0.038041934,0.07302786,-0.03353129,-0.013613007,-0.013376276,0.028470417,-0.046395708,0.123200394,-0.046583544,0.020966757,0.006401702,-0.059068624,-0.0030603013,0.032498423,0.042823717,0.01041311,-0.013539433,-0.018704135,-0.036319647,-0.0022327336,-0.04359141,0.036355168,0.10818236,-0.0954862,0.0452205,0.08878292,0.07264744,0.010517186,0.017085232,-0.0261029
calendar_query,0.0391411,0.09557426,0.047393117,0.0895759,-0.11017838,0.02264447,0.06579586,0.010161947,0.019932505,-0.07260535,-0.044449948,-0.10534696,-0.050847415,-0.0329612,0.008355915,-0.020735819,-0.031358957,-0.002035153,-0.0022962089,-0.027968807,-0.009499534,-0.02632703,-0.08892665,0.05104533,0.023018368,-0.006932998,0.030888453,-0.0073229442,0.0088798255,0.0432706,-0.045692474,0.02040679,-0.07728257,-0.030019013,0.045244098,-0.0066322247,0.019628212,-0.08144325,0.0410086,-0.05620546,0.0008173416,-0.035936747,0.09574556,-0.018287335,-0.026774606,0.012036473,0.004975938,0.08976549,0.025607524,0.012467322,-0.07074883,-0.012492761,-0.03764726,0.0026305036,0.0021432226,0.09292422,-0.08216206,-0.034854155,-0.009141982,0.008023698,-0.03273788,0.038323555,-0.012079628,0.08410169,-0.15110075,-0.06353302,-0.035577506,0.037867904,0.07760998,-0.0380833,-0.012663646,-0.02149523,-0.00046882237,0.061592024,0.048679285,-0.024158064,-0.021427114,-0.026098805,0.0270096,-0.0077900733,-0.044149946,-0.029460588,0.022353517,-0.012220848,0.104752086,-0.029761955,0.018983107,-0.0094058905,-0.002893533,-0.057314694,0.022853816,0.11058946,-0.0021945715,-0.0029930864,-0.03880765,0.029925037,0.024944508,-0.018717628,0.044367027,0.11375716,0.0057640937,0.054941393,-0.10359541,0.095297314,-0.10755224,-0.0025475419,-0.06549172,-0.07598201,-0.11480651,-0.030367974,-0.08168064,-0.018356958,0.08604634,-0.025065495,-0.009769865,0.0640822,0.022446446,0.05896155,0.026399251,0.037666105,0.03761171,0.08530726,-0.04893746,0.045515608,-0.035458285,-0.03675037,0.11017839,-3.8345812e-33,0.03547703,-0.028882435,0.029534366,-0.10026489,0.032522026,0.09131197,-0.008006339,0.006068683,0.08304641,0.019339409,0.0317937,-0.034304593,0.022613248,-0.0491062,0.038294096,0.09007998,-0.004661942,0.009521522,0.004978653,0.043616667,-0.07177521,-0.06299952,0.027886154,0.094932556,0.02971903,0.052237246,0.023246806,0.0153741585,0.0057272343,0.0017062427,-0.03215442,-0.042389307,-0.031022787,-0.034088556,0.05999549,0.11147692,0.010325667,-0.01676286,-0.029734278,0.04115516,-0.020774553,-0.022345293,0.03647889,-0.027141027,-0.006095481,0.007478567,0.02812887,-0.043656807,0.018150551,-0.046106447,0.0050533065,-0.027958384,-0.005053034,-0.04582844,0.007662997,-0.039859243,0.06981947,0.051246177,0.02783935,0.014207366,0.041956052,-0.056515288,0.06719301,-0.04350979,-0.08454914,-0.01625358,0.019332835,0.042207826,0.03999341,0.025334882,0.04377795,0.010507644,0.10783166,-0.029646173,0.002534863,0.067662984,0.07264888,-0.024172662,0.029644268,0.04327185,-0.051516835,-0.045122206,0.054316867,0.043852955,-0.067903794,-0.006753823,-0.009609508,0.119931154,0.09446666,-0.016726062,-0.07694763,-0.019233003,-0.014682128,0.05199987,-0.042173997,1.2612723e-33,0.020822072,0.0031726977,-0.021057986,-0.043116342,-0.019575967,-0.057737585,0.0020789723,-0.008907047,0.01699477,0.043811683,0.04715535,0.018007401,0.074013956,-0.07358906,0.100051194,0.027187804,0.02367286,-0.029475743,-0.033211302,0.014127343,-0.12321429,0.15365371,-0.08225522,-0.061339207,0.038141355,-0.028748645,0.029245384,-0.021059845,-0.017039217,0.03138718,-0.014693585,-0.13666858,-0.026808102,0.070953116,0.024995143,0.047954436,-0.02137448,0.012741547,-0.005085154,-0.024136545,0.018576086,-0.011848243,0.028958466,0.11440934,0.011051162,0.027822511,-0.038179204,0.06712687,0.040738802,0.060512412,-0.04339783,-0.027784284,-0.025250426,-0.033751655,0.04392412,-0.0033950903,-0.030719953,-0.05626793,0.006265134,-0.02038764,-0.05202074,0.023941264,0.014625166,-0.039286774,-0.054443322,-0.0704709,-0.052549243,0.010276766,0.06582415,-0.011655336,0.04148271,0.00796234,0.006776982,0.009470558,-0.045939438,0.08973009,0.031830274,0.050847836,-0.04360782,-0.01958676,-0.15801647,0.007944738,0.022475986,-0.005906968,-0.11669474,-0.038160037,0.018676743,-0.036826342,-0.04692286,0.0125962375,0.018441163,-0.04850745,-0.05073871,0.0055766325,0.048955403,-1.3055756e-08,0.089376345,0.038102347,-0.012533787,-0.0021584006,0.089547716,-0.10985801,0.053397533,0.031155488,-0.0042423666,0.06491425,0.0407147,-0.06630318,0.012984983,0.0023478437,-0.04706963,0.016915096,-0.058447402,0.069826506,-0.041196574,-0.077881694,-0.0050846697,-0.018812293,0.008104668,-0.07789361,0.018289687,0.016278543,-0.10120186,0.10553372,-0.011137036,0.019796621,-0.010214798,-0.016627975,0.07590559,-0.07978655,-0.006019824,-0.091138706,-0.03648835,0.035987843,-0.017178677,-0.06174857,0.071179174,0.024892919,0.028706575,0.058158346,-0.05778942,-0.030159837,0.06316125,-0.052173186,0.038081713,0.0005767768,-0.06109738,-0.022698894,0.03567628,-0.11390099,-0.07714192,0.04956972,-0.0006733295,-0.013840729,-0.03734562,-0.030440718,-0.023990342,-0.020491581,-0.050067518,0.03287081
play_music,0.049475625,-0.04731583,-0.0024634025,-0.07220549,-0.09481034,0.08619954,0.11374508,0.015414665,-0.03988719,0.02141307,0.027822273,0.009969896,0.026555136,-0.03134578,-0.00054778374,0.029447906,-0.017993858,0.062454823,0.0114725595,-0.0076833516,-0.08880205,0.049600933,-0.03775867,0.059185237,-0.036574844,0.054369994,-0.0045338576,0.09893032,-0.033086568,-0.042205684,0.044992253,0.044412885,0.10944541,-0.073357865,-0.05687161,-0.017332496,-0.036051385,-0.1305308,-0.0573374,-0.05553591,-0.0038091391,0.039992884,-0.018319648,-0.0021795174,-0.11622708,-0.014114161,-0.10153211,-0.056328043,0.027556619,0.049584527,-0.03977267,0.021298913,-0.05124101,0.03645341,-0.036705688,-0.037580486,0.029160377,0.057865817,0.0386647,0.07285124,-0.010155585,-0.029496726,0.022059336,-0.0032732887,-0.012606612,-0.042793214,-0.030152118,0.0003675907,-0.03446228,0.039094932,0.05497364,0.054981142,0.04700365,0.05405642,0.052052666,-0.03653936,0.009590985,-0.034173425,-0.086249806,-0.021643357,-0.013375637,0.010720671,-0.0783314,-0.056329872,0.011376481,-0.0030651777,-0.01624919,-0.036066316,-0.003761862,-0.04289097,-0.10078388,0.04589144,-0.024485055,0.065696225,0.009893189,0.07252568,0.03142111,-0.09987823,-0.041218072,0.09187759,-0.011681018,0.047910243,0.046697605,0.02690231,-0.05693001,-0.017856894,-0.047023755,0.1387659,0.031922705,-0.09050834,0.0075056986,-0.036942784,-0.02365675,0.038167626,0.025047852,0.088885106,0.015186616,0.04281018,0.0932077,0.008724071,0.077472925,-0.02229041,-0.08169794,-0.016955258,-0.06504963,-0.027979102,0.010898749,-3.0938424e-33,0.029728137,-0.103620656,0.028291952,0.018744957,0.05366383,-0.047148623,-0.034488983,0.045458436,-0.04309568,0.040325895,0.005455662,0.019969132,3.4727094e-05,0.0067878305,0.03135326,-0.026157567,-0.050609365,0.05894895,0.011807068,0.0042859185,0.010930373,0.017540196,0.0014412125,0.087716594,0.039929964,0.028352713,0.007440028,-0.08170528,0.044628933,-0.019965608,-0.011474017,-0.051277075,-0.014847952,-0.018238578,0.027692417,0.06281818,-0.02326116,0.013505969,-0.024665004,-0.09080141,-0.03422711,-0.009035566,-0.07701098,0.00561915,-0.026087688,-0.063708276,0.0030623516,0.02885672,0.021822525,-0.043694347,0.0138639575,0.08831368,-0.018776648,0.016126448,0.02290154,-0.017586842,0.004689336,0.050334476,0.01675992,-0.043225143,0.14336872,0.0025204362,0.024042385,-0.061421227,-0.03458148,0.015734587,0.07433625,-0.050225597,0.12238254,-0.0018698858,-0.062299535,-0.015024646,0.023229172,0.018505028,-0.045653943,-0.021666994,-0.039889667,-0.11410158,0.025009502,0.036002588,-0.025059262,-0.052881587,-0.086260326,-0.010304885,-0.038329113,0.038371667,0.00095930195,-0.13275829,-0.09003097,-0.01595633,-0.13514999,0.015848821,0.007246193,-0.009349775,-0.048414376,1.2394104e-33,0.0013224531,0.0015405519,0.0047239065,-0.052942023,0.0015312397,0.00036100304,0.06376463,0.05226162,0.0050965184,0.07535866,-0.020475212,0.011031218,0.018093906,-0.013179238,0.03788431,0.017649764,-0.02483711,0.07207897,0.07394771,0.021333072,-0.14935835,0.037899897,0.06475276,-0.009162904,-0.056381006,-0.03429862,0.102041796,0.020720387,-0.00677621,0.015621256,0.10028058,0.020463752,-0.08174322,-0.078416415,0.024081219,0.011950187,0.07434987,0.03443833,-0.04744811,-0.049289208,0.058839586,0.08230837,0.015355549,0.064247265,-0.05940098,0.046903525,0.039853152,0.09981672,-0.000101607824,0.01597132,0.017334102,-0.09856317,0.057514366,-0.13811241,0.012910862,0.053450305,0.00718151,-0.037605453,-0.06136658,0.04695907,0.07434844,0.047217507,-0.08628535,-0.06519673,-0.018951569,0.08144139,-0.018338291,-0.020666054,0.043571696,-0.0024790103,0.0015451025,0.079226695,-0.03540257,0.031757902,-0.08971087,0.016729752,-0.059210517,0.04542873,-0.005852623,-0.008668434,0.03151232,0.015928768,-0.004804113,-0.06827884,-0.018489664,0.028173387,0.07875724,0.02657099,-0.075396545,0.03683169,0.08190719,0.050067786,0.020003356,0.008622077,-0.035409942,-1.2863734e-08,-0.004500482,0.051224567,0.0055439547,-0.021229254,-0.012710723,0.02265083,0.047768187,-0.09854128,0.009016814,0.0055618873,0.031393837,-0.071211554,0.08251004,0.024690593,-0.03789291,0.013152551,-0.044772256,0.10051981,-0.04529818,0.050800115,0.028231114,0.07904364,-0.010759417,-0.042910844,-0.035834197,0.02246543,0.026800267,0.059994254,0.016394025,-0.008199819,0.025924362,0.015861494,-0.008413049,-0.05555737,0.013545315,-0.03150353,-0.041181035,-0.031341143,-0.08381346,0.02799841,0.0035782866,0.09529478,0.053492747,-0.03441728,-0.083750024,-0.025091302,0.027644688,0.023343135,0.021798005,0.06454283,-0.0696668,0.019669265,-0.04632969,0.010495489,0.041821137,0.018257154,-0.011580625,0.1041405,-0.083803214,0.02637784,-0.07547553,0.034790266,0.046054427,0.056218136
general_quirky,-0.03606037,-0.042526864,0.13619179,-0.010121877,-0.019357216,-0.11287313,0.13862742,0.054998472,-0.12738541,0.0022359728,0.021394266,-0.00945032,-0.018155638,-0.034967195,-0.06963281,-0.027777709,0.052429732,-0.09399804,-0.074228995,0.011950147,-0.06167323,0.0028850075,-0.03450061,0.03752745,-0.060897965,-0.108203806,-0.0005100573,0.04844294,-0.013730494,-0.022128295,-0.019823574,0.14583625,0.07311347,-0.03585317,-0.0061899894,0.053318944,-0.03995661,0.03734797,0.079177976,0.009607934,-0.022794144,-0.04097341,0.043212816,0.042048264,-0.018158963,-0.09149578,-0.0047127637,-0.054537196,-0.031198453,0.022493444,0.008818571,-0.045742437,-0.08645095,0.025592115,0.026167976,-0.0064333896,-0.011130875,-0.065487586,-0.0153176235,0.026779206,0.01470217,-0.016847353,-0.02532302,-0.017726334,0.057764318,-0.06981661,0.016524373,-0.020854605,-0.018907271,-0.0047564497,0.002640055,0.008905666,-0.008158707,0.077333994,0.035347417,-0.05816646,-0.045840427,0.00034053624,0.0041973405,0.03470704,0.0020181702,0.035511162,0.008241159,-0.012114374,0.07786045,-0.07684117,0.063261345,-0.02014499,0.007739141,0.011572635,0.0061767492,-0.020710483,0.08993508,0.015990838,-0.008768814,0.0616147,0.07123994,-0.09919517,-0.044827275,0.19336483,0.043227393,-0.019459946,0.065292075,0.046995003,0.03923752,0.06537583,0.029977946,0.01686571,0.04717108,-0.07888611,-0.0856335,0.002027834,0.06507483,-0.007321905,-0.008295884,0.049635835,-0.044871446,0.027580498,0.037126042,-0.05141916,0.079536654,0.050012387,-0.07833366,0.02173173,-0.06683548,0.09738446,0.015399955,-2.785273e-33,0.050647493,0.03581646,0.011396532,0.056150302,-0.015305377,0.008638034,-0.057646222,-0.024856634,-0.026984552,0.034798075,0.024794921,0.057221416,-0.057002738,0.009020221,-0.035005312,0.12991227,-0.08512429,0.002256966,0.066623494,-0.015798777,-0.0053218394,0.06842873,-0.0075793215,-0.04055612,-0.007594906,0.030659927,0.03005146,-0.028040225,0.038421363,0.02198965,-0.0119391205,0.0083406875,0.05883724,0.04181263,-0.037220325,-0.018232068,0.0064122714,-0.07677852,0.023856377,0.033505764,0.039720617,0.029697372,-0.04800259,0.030855568,0.045642048,0.08946311,0.10048074,0.05796565,-0.10948107,-0.005127157,-0.034346186,-0.026496936,-0.07752027,0.061621256,-0.05349182,-0.0029525154,-0.0072057596,-0.016641784,0.035487894,-0.033270154,0.018624382,0.063543096,0.025453769,-0.039714657,-0.02587247,-0.0385726,-0.041037302,-0.0004998344,0.017564723,0.052426577,-0.0054167616,0.039548695,-0.059069768,0.0077237478,-0.028781122,-0.005291627,0.05076347,-0.019495066,-0.030488405,-0.044683054,-0.07707612,0.026160324,-0.015161242,0.004821966,-0.1232227,-0.03110255,0.07486673,-0.03658473,0.059605625,-0.019611353,-0.07479255,-0.0064665335,0.016536992,0.014141319,-0.118760504,1.2498859e-33,-0.06486409,-0.018792981,-0.05909901,0.031765096,0.0687201,0.008456837,-0.047299773,0.03352517,-0.10690944,0.031804882,-0.038595032,-0.010403372,0.03885159,-0.017262034,0.11182638,-0.010255664,0.014092045,-0.0447578,-0.034705926,0.03304994,0.0357319,-0.045266166,-0.03250271,-0.01528516,-0.03049911,0.069950186,-0.017539283,0.007818568,-0.107065976,0.052496463,0.018041328,0.06415279,-0.066581726,0.023338452,0.020380378,0.044419363,-0.035546627,-0.020898242,-0.07828743,0.05655421,-0.05521553,0.029976873,0.09549825,0.04293068,0.004124449,0.0021823132,0.011133794,-0.019634051,0.011280115,-0.005144311,-0.09316712,0.016907822,-0.0438521,-0.046953227,-0.006954368,0.03896208,0.0587141,0.037297986,-0.028422274,0.04337169,-0.05976995,-0.06317607,-0.028806979,-0.041879505,-0.025660222,0.00383208,-0.08276821,0.0023674765,-0.04941124,-0.026530115,0.033227127,-0.014705859,-0.06631228,-0.07028207,-0.014147395,0.048703134,0.04843418,-0.0053348048,-0.02181797,0.015301423,0.05778663,-0.05750919,0.021251794,0.032480974,-0.053804535,-0.041137483,0.038094547,0.13924259,0.028033672,-0.017178833,0.034457024,0.025899865,-0.030257197,-0.009258551,0.043212935,-1.6607641e-08,-0.013906895,0.039984982,-0.02677953,0.046329983,-0.030493096,-0.033609476,-0.13407606,0.011929519,0.017757133,0.034503963,-0.007545307,-0.03669191,-0.0075171054,0.057786755,0.08551387,0.045413144,-0.08067064,0.029463265,-0.08415604,-0.0057013026,-0.033713106,0.027174817,-0.04244435,-0.0824776,-0.061421067,0.024950482,0.017508898,0.0021171905,0.0019999428,0.059175234,0.026909018,0.1479777,-0.0829376,-0.0013932722,-0.008457983,0.025622237,-0.01766995,0.044762485,0.07829654,-0.053514242,-0.031902567,-0.025700266,0.05202602,-0.027077328,-0.068066485,-0.042519785,0.08890418,-0.083708405,0.046385918,0.08707386,0.07394247,-0.01892083,0.06878318,0.051158108,0.1039365,-0.02695731,-7.831212e-05,0.055135287,-0.083316214,-0.042530153,0.029970597,0.001885521,-0.024767488,-0.006727894
general_greet,-0.10488969,0.035001587,0.08594164,0.00034996725,-0.02841099,-0.05404894,0.13061294,-0.016524553,-0.051494323,-0.033831645,-0.0074227685,-0.029191613,-0.006341275,-0.019800505,0.00055692694,-0.020515775,-0.00084717147,0.001857883,-0.04534714,0.049097992,-0.008978605,0.032642376,0.0030808607,0.07159269,-0.06508029,-0.0848517,0.012168248,0.06972831,-0.034239195,-0.057594948,-0.014946559,0.10938688,0.168184,-0.0045990846,-0.020027027,0.06711484,-0.017427294,-0.018049488,0.030024244,-0.01976312,-0.07961607,-0.03556923,0.0299356,0.010277487,0.0055412,0.0059499014,-0.04305185,-0.051908318,0.026299946,0.04855619,0.055219147,0.018711003,-0.046907313,0.08445766,0.047238816,0.038563944,-0.017549554,-0.094067305,-0.0011738474,0.045167018,-0.066747665,-0.004492332,-0.030515322,-0.00021737082,0.026004495,-0.02935348,-0.015116055,-0.042413544,-0.017308744,-0.046859123,-0.06502555,-0.019998958,-0.006158511,0.0032383709,-0.019611899,-0.046307262,-0.03380814,0.013730337,0.018937552,-0.026457142,-0.01416267,0.029770656,-0.030494709,0.024824541,0.002960931,-0.035339523,0.005828975,0.01813942,-0.009450856,0.014812405,-0.046588197,0.018919373,0.0082663605,0.018165445,-0.05788333,-0.006352754,0.047012575,-0.04123526,-0.052593865,0.18098778,0.08342447,0.01149671,-0.01881548,0.021977158,-0.016797762,0.029631307,-0.036373243,0.038070433,0.019251851,-0.06096937,-0.056297548,-0.0038870948,0.014250931,0.02661787,0.06577155,0.016340064,-0.041947227,0.0153516615,0.0545478,-0.041644238,0.07103074,-0.034467664,-0.06106895,-0.011839895,-0.065957084,0.027565518,0.0467721,-4.2194436e-33,0.031926423,0.10495104,0.03780207,0.109941825,-0.03969141,0.081836164,-0.028191194,-0.015957993,0.0035010525,0.05352587,-0.035157673,0.092229925,0.023780366,-0.006500341,-0.031299084,0.07896923,-0.013372038,0.05009522,-0.030523028,0.067327484,-0.014302638,0.034554984,0.012003263,0.0594074,0.038302016,0.021806678,-0.0012729808,-0.036140084,0.08560029,0.001688563,-0.004655819,-0.029476205,0.053431068,0.062318522,0.029833473,-0.033914834,-0.017153176,-0.07727026,-0.045928475,-0.0567462,-0.05145706,0.033593208,-0.035269234,-0.0010381999,0.0075133196,0.0066257957,0.11324229,0.048111726,0.02035982,-0.011618555,-0.06774856,0.006118683,-0.14316711,0.056839265,-0.070898,-0.023848532,-0.0277193,0.031630274,-0.057848517,-0.07149343,0.06530793,0.035731014,-0.029611548,-0.038084306,-0.024562573,-0.1086895,-0.047930323,0.029322201,0.028374918,0.019160494,0.02937024,0.06120546,0.007981582,0.13363346,-0.04814771,0.037900258,0.10211042,0.06574304,0.020111471,0.022586385,-0.111141525,0.04733444,-0.09616703,-0.0034013016,-0.0012938918,-0.012628863,0.022309769,-0.05156328,-0.0064880974,-0.00045645534,-0.17622808,-0.01354627,0.08548585,0.03623088,-0.09497524,8.933501e-34,0.05408711,0.020041091,-0.043192085,-0.11332635,0.05870038,0.010984502,0.040415097,0.008498563,-0.15209916,0.012686839,0.06177942,0.051502112,0.06838255,0.04921126,0.07289045,0.048973516,0.09379858,0.029859742,-0.057263907,0.0020296571,-0.018868566,0.066867046,-0.07685961,-0.027123595,-0.034135494,-0.024146382,0.056223657,0.07023191,-0.10011889,-0.014701433,0.028419966,0.046616536,-0.0887975,0.06796053,-0.028813785,-0.01129423,0.08303258,0.0042695375,-0.10338337,0.038801715,0.026360588,0.041866492,0.050651096,0.047831364,-0.015820831,-0.0055506015,-0.05790688,-0.047363993,-0.043637123,0.014847506,-0.097839765,-0.0840376,0.026433835,-0.10173072,-0.029607005,-0.0212977,0.04363313,-0.0011188794,-0.022162786,-0.0018271619,-0.02247608,0.032088682,0.042998902,-0.019304724,-0.04786501,-0.011971224,0.003547973,0.021855753,0.0012784993,-0.021588832,0.067712165,-0.06998303,-0.03363068,0.058141463,-0.025965923,-0.028983984,-0.009806521,-0.09009092,-0.041871116,-0.058490846,0.03171093,-0.047581557,0.025662035,0.006168258,-0.04111345,-0.032173883,0.06643139,0.112536594,0.04388623,-0.027758032,0.013494915,0.024762731,-0.0058696074,-0.032313302,-0.052059375,-1.3762334e-08,-0.013839874,0.042920295,0.043834932,0.036513116,0.028249035,-0.015550564,-0.11518,-0.024729576,0.0069327997,-0.02994284,-0.056546163,0.03583266,-0.018063542,-0.027972016,0.042626772,-0.0051489207,-0.08991388,0.038395613,-0.05908,-0.08437871,-0.03626978,-0.00936676,-0.03869683,-0.013005144,-0.011103671,0.03535913,0.05486097,0.013858572,-0.057299417,-0.01635685,0.03774253,0.14022876,-0.05965281,-0.06875846,0.031491686,0.011976132,-0.041880034,-0.0037384676,0.07640982,-0.04002669,-0.01685849,0.056510806,0.039558884,-0.0074472437,-0.024971036,-0.022844315,0.06858173,-0.071913615,-0.00446361,0.020295575,0.054984488,0.006432596,0.041181833,0.051948667,0.037259806,0.034421522,0.05414021,0.059003487,0.034645695,-0.042368244,-0.010688776,-0.013136702,-0.042976703,-0.055989765
datetime_query,0.034179606,0.009816271,0.0041154213,0.03126614,-0.03852922,-0.0168652,0.08846469,0.07142239,0.016099153,-0.030722754,0.037780054,-0.032750763,-0.019595277,-6.0582588e-05,-0.008023648,0.00818784,0.03131049,0.0020002397,0.010360409,-0.056764774,0.006879821,-0.016892841,-0.05655172,0.0336957,-0.018201893,-0.02833054,0.07756367,-0.02553626,-0.0035083154,-0.014997316,-0.070846826,0.046103414,-0.05233892,0.025620038,-0.016752506,-0.010676775,0.082130104,-0.06113688,0.013723551,-0.057523116,0.00087874033,-0.04292917,0.071783915,0.031240193,-0.04825528,0.02330413,0.06844901,0.07209564,0.016382335,0.020160679,-0.10395741,0.035905633,-0.025112545,-0.048749596,0.03179951,0.047985688,-0.076997444,0.03801086,-0.012517869,0.0035028774,-0.00804214,0.09141282,-0.05862687,0.051987987,-0.07709445,-0.13059027,0.0104228705,-0.011220846,0.07007052,-0.023507088,0.0022182255,-0.021842694,-0.06005728,-0.0021491118,0.024071027,0.021831136,0.016957873,0.0067633856,0.01993026,-0.0043924632,-0.021279262,0.039670385,-0.01693081,0.00211774,0.13998774,-0.063156776,0.0649714,0.029212203,0.04296479,-0.05902114,0.0006276351,0.04040356,-0.06525713,0.036877815,-0.0055269785,-0.10206731,0.049559295,0.028875768,0.10634173,0.1030219,-0.02197352,0.03651764,-0.12389875,0.031747498,-0.0584887,0.029928574,-0.03042997,-0.02272394,-0.018803546,0.013437262,-0.035022322,-0.021957086,0.036529344,-0.08048412,0.077601455,0.0040348405,-0.04646462,-0.031888053,0.0013438044,-0.023674753,0.008747353,0.0648999,-0.03638304,-0.05991949,-0.028470377,-0.0003435317,0.043305878,-1.5372371e-33,-0.004890643,-0.032371372,-0.039237108,-0.09932522,0.0009180796,0.06946243,0.05045592,0.03541923,0.066723965,0.032382634,0.02023989,-0.14619017,-0.015098905,-0.12103592,-0.013210855,0.09576607,-0.012687242,0.0010637227,0.09449515,0.060642593,0.019117221,-0.085730106,-0.03378841,0.10384429,0.10330462,-0.100730404,-0.035916798,-0.015352007,0.035232894,0.00088590186,-0.064862035,0.0062310747,-0.08094455,-0.06241076,0.13651995,0.068829164,0.01593734,-0.0027277775,-0.0066777933,0.009295985,0.012675039,-0.0014323713,0.07274111,-0.055516515,0.037790295,-0.042497713,-0.024027847,-0.09957149,-0.030709354,-0.01700343,-0.02962272,-0.04214163,0.07129664,-0.026112603,0.0028203526,-0.037309766,0.03822075,0.018498914,-0.027309995,0.021875087,0.0023448216,-0.042759802,0.068528965,-0.1523727,-0.03234404,0.032262377,0.10601702,0.083739884,0.058386214,0.04808255,0.0497655,0.053793065,0.04379008,-0.0027526582,-0.060824182,-0.034132432,0.11984693,0.027235419,0.05491016,0.085352056,-0.010979275,-0.09364235,0.022580052,0.015167169,-0.08409657,0.006225358,0.074345075,0.049746845,0.05115184,-0.018224226,-0.085938945,-0.022893056,0.017023504,-0.011056763,-0.04944902,5.648032e-34,0.03389523,-0.04744131,-0.011657825,0.006906592,0.011180003,-0.087950826,-0.05265498,0.07993468,0.025442787,0.0668173,0.095646575,-0.054584507,0.0703229,-0.08236739,0.077094264,0.024454147,-0.009412584,-0.06570259,-0.027336042,0.019152649,-0.076859154,0.06792156,-0.0453541,-0.045286614,0.07021176,-0.018876348,0.033834364,0.0020825632,-0.026515841,0.04554132,-0.0046471595,-0.07777805,-0.01291817,0.045982137,-0.04734264,0.048458025,-0.034010064,-0.052743096,0.011917249,-0.06045732,0.01890318,0.047509566,-0.015202182,0.054309145,-0.056020834,0.08871679,0.0043938435,-0.010408543,-0.01028676,0.011682856,-0.017314732,-0.0072802175,0.03245236,-0.01684537,0.02505713,-0.03395582,0.0018713356,-0.004309776,0.00091267715,-0.04462036,-0.020381907,0.039774466,-0.012085158,-0.068409294,-0.032154094,0.012131962,-0.024755314,-0.018560499,0.00060589804,-0.009066431,0.04321768,0.053542823,-0.006717646,0.050866455,-0.08473999,0.07804739,0.024345761,0.11422475,-0.033148598,-0.029347192,-0.05259497,-0.012948231,0.011553482,0.023089673,-0.056473147,0.032206416,-0.0022471352,-0.00385513,-0.027539238,-0.012564472,0.031480934,-0.023368204,-0.037930924,0.02280088,0.009755895,-1.3458352e-08,0.07314935,0.066702716,0.0136553375,0.023464048,0.013797999,-0.06022488,0.05339377,0.016002337,-0.00030772478,0.036677897,0.085979246,-0.052878268,-0.014036703,-0.045880426,0.04670693,0.008507861,-0.084874384,0.0020235952,-0.026590036,-0.11651087,-0.048868585,-0.024596978,0.059380572,-0.03671051,-0.06637785,0.097419985,-0.057376206,0.117794596,0.047537897,0.024231827,0.02008131,0.02654782,0.0063261627,-0.041160677,-0.0137379905,-0.12102226,-0.024284964,0.012073687,-0.12964207,-0.004717722,0.030346768,0.06243746,-0.056867212,0.060044482,0.004416288,-0.04912564,0.049423974,-0.008691522,0.014916553,0.03161122,0.005638281,0.031679083,0.08280613,-0.0608453,-0.020719094,0.016950274,0.062272456,0.028110547,-0.057939168,-0.04403971,-0.095044285,-0.018823966,-0.0035497546,0.047412388
datetime_convert,0.026391799,0.036296614,-0.031354,-0.0026379367,0.035440244,-0.045699865,0.007837698,0.05888723,0.0043674777,-0.002506733,0.017711902,-0.055816505,-0.023925252,0.0048462646,-0.002104663,0.002894492,-0.03326948,0.07211931,0.018722335,-0.0151635045,0.03977803,-0.02622389,-0.07152505,0.05206439,-0.008755986,-0.03987833,0.0085354475,-0.018079342,-0.050413266,0.0008999664,-0.019113494,0.030883677,-0.04321028,-0.025868038,0.030533297,0.034284487,0.10134462,-0.013016741,0.03827323,0.008714479,-0.012214621,-0.061013978,0.04786974,0.025951987,-0.041384634,-0.012087844,0.089745186,0.0636465,0.04127629,0.03546544,-0.039492924,0.08525522,-0.051759623,-0.046031427,-0.0028752799,0.07336674,-0.012585859,0.052967146,-0.011491162,-0.01420938,-0.048290875,0.119650096,-0.09221274,0.03653696,-0.08207133,-0.12137656,-0.0019919488,-0.045931175,0.023015449,-0.042760022,-0.064777866,-0.031948384,-0.063166626,0.030431641,0.046630457,-0.045305368,-0.025263837,0.0051109996,0.031449813,0.019848982,0.00282506,0.06585704,-0.011876689,-0.023016393,0.088568285,-0.044455633,0.018704476,0.08986395,-0.007881444,-0.035811525,-0.020639956,0.021463402,-0.0059939544,0.05549816,0.011338416,-0.12817304,0.03590408,0.06409349,0.11110436,0.08748503,-0.061833743,0.052651927,-0.12979828,-0.011832104,-0.029960457,0.016644437,-0.00067157316,-0.004093872,-0.0052967025,0.014628339,0.0035588439,0.0026069733,-0.0038785525,-0.035019323,0.09015925,-0.0015453806,-0.0989367,-0.046276405,-0.03354984,0.03603107,-0.020236079,0.05115541,0.026729422,-0.0050833053,-0.065616615,0.0021505028,0.022544896,-1.2262039e-33,-0.07224549,0.0042360006,-0.035930883,-0.07821305,-0.050432418,0.11134606,-0.0096388385,0.0014222523,0.07904894,0.052540116,0.0038266084,-0.15059473,-0.027120763,-0.0951613,-0.008648875,0.06465827,0.0032958405,-0.009487876,0.1544451,0.02424815,0.09333536,-0.018010095,-0.059826672,0.06114109,0.049845822,-0.08097813,-0.04276404,0.0024116863,0.06271418,-0.00959795,-0.06731332,-0.033833798,-0.023743963,-0.028563889,0.086511366,0.085407585,0.008351504,-0.0052881604,-0.008761905,-0.009114412,0.004433221,0.025806904,0.027775673,-0.030377721,0.073286705,0.00075180316,0.0001889789,-0.076635644,0.03529556,-0.008768371,-0.040749736,-0.028278554,0.09020969,-0.007149779,-0.062407803,-0.05819922,0.083615415,-0.045716368,-0.01952339,-0.05063477,0.02993586,-0.02079116,0.06450699,-0.1012344,-0.040233824,-0.04244698,0.11781968,0.030673768,-0.006176566,0.04340442,-0.026715523,0.008322524,-0.003614634,0.030081442,-0.044765197,-0.05521684,0.12420213,-0.014226015,0.050285764,0.006903786,-0.0059076273,-0.0043333755,0.02340702,-0.06928592,-0.043410625,-0.034224693,0.02283675,-0.0022765126,0.039381158,-0.003919742,-0.0348412,-0.060740195,-0.016523099,-0.03044781,-0.0664964,5.290614e-34,0.04824021,-0.013442271,-0.008201087,0.03145753,0.0041090455,-0.09382687,-0.025548657,0.09122169,0.02361594,0.042868413,0.092259936,-0.068283364,0.048899446,-0.049817424,0.0710777,-0.031694803,-0.03187008,-0.003816034,-0.00384779,-0.00887751,-0.0058585196,0.09613477,0.0021397145,-0.052453335,0.044368435,-0.010370587,0.040818322,0.045736115,0.033074137,0.050654415,-0.014153462,-0.032104798,-0.0066970196,0.08159482,-0.07116034,0.06698692,0.008744613,-0.0036705078,0.0043679625,-0.04513494,-0.014876214,0.07145051,-0.041274674,-0.018370375,-0.057332687,0.1510629,0.033368804,-0.005552976,0.04318805,0.0022305145,-0.01573099,-0.00585586,0.01024232,-0.037253972,0.041554138,-0.053744398,0.04674453,-0.03227533,-0.050405893,-0.065171175,-0.050229914,-0.012010677,0.018467924,-0.06046925,-0.0187043,0.012943617,0.0060317586,0.018892758,0.03495896,0.034888275,0.08543394,0.0726586,-0.02268738,0.07922811,-0.08936452,0.009956644,0.023247063,0.14366032,-0.02655308,-0.09614175,-0.072373144,-0.021019537,0.03378711,-0.0004861472,-0.04516741,0.003365628,0.03662088,0.0034261423,-0.050991725,-0.011999715,-0.0020346723,0.034424458,-0.027051369,0.057760548,-0.00026518822,-1.405589e-08,0.032948576,0.032993294,0.007137552,0.023108754,-0.081884496,-0.069030076,0.042744715,-0.07398012,0.06253741,0.030050563,0.064196594,-0.06178825,0.018966448,-0.05119208,0.05301458,0.064250045,-0.046983723,0.0015645468,0.0007931619,-0.07976408,-0.02640363,-0.04712142,0.043678887,-0.05635858,-0.038573544,0.0657345,-0.10759262,0.182782,0.020399982,-0.02595427,0.03368095,0.046905205,-0.028893769,-0.07305107,-0.033346202,-0.059131935,-0.021353593,0.036211755,-0.058502074,0.049521018,0.017068664,0.0667563,-0.10266079,0.047393594,-0.015248948,-0.06149171,0.009025934,0.017395029,0.033470757,0.039892633,0.03769841,0.10256156,0.066376306,-0.0808773,0.018796515,-0.034361336,0.04036394,0.03963477,-0.022054298,0.014934039,-0.07919058,0.013176586,0.04277605,-0.004146231
takeaway_query,0.030297982,0.07401951,-0.005950793,0.10359877,0.02375163,0.053402785,0.17465918,-0.008980239,0.021718135,-0.061170433,0.062349215,-0.046291225,0.042811625,-0.11261393,0.007427505,0.04102952,-0.01900673,0.004827046,-0.024822135,-0.013050568,-0.01108882,0.024010874,-0.078950346,0.07877519,0.044689514,-0.047371577,0.037832968,0.03828817,-0.027225,-0.032845743,-0.054155376,0.026245434,-0.009491391,0.04750551,0.008348501,0.0013209367,-0.060086586,-0.070316896,0.018141419,-0.022224326,-0.0521385,0.00260824,0.03169263,-0.025212087,-0.061393797,0.046999782,-0.087167,0.040930714,0.08372666,-0.028938279,-0.050559524,0.04416673,-0.051946796,0.053133387,-0.0047563524,-0.06300698,-0.09710186,-0.051275734,-0.07636953,-0.01993875,-0.035821423,-0.007181539,0.011774151,0.0027532724,-0.04772061,-0.093491934,-0.050293606,-0.0573307,0.066973925,0.008632062,0.050245896,-0.008265917,-0.07385094,-0.013204984,0.032238998,0.06655688,0.0072520045,-0.015615856,-0.06814015,0.048722755,-0.026802916,-0.027510632,-0.08390664,0.0077495854,0.026765848,-0.06548262,0.005909797,-0.032376967,0.045936506,-0.116748825,-0.08694311,0.03953051,-0.011189012,0.012516906,-0.046702035,-0.04598192,0.046294786,-0.012513751,0.02137516,0.13343242,0.06394827,0.11409648,-0.054687455,-0.028866151,-0.075324245,0.05256609,0.08930764,-0.06666564,0.026037874,-0.030114409,-0.043108277,0.028971324,0.054322325,0.015329517,0.00073719514,0.060234,0.030258505,0.02373718,0.081033245,-0.048591405,0.049984246,0.058121562,-0.03572182,-0.039337028,-0.08467975,-0.051916093,0.04369523,-2.373219e-33,-0.0075330758,-0.02516751,-0.03271592,0.0519682,0.032635324,0.042735234,-0.007653952,0.080852166,-0.011232572,0.030936005,-0.015238595,-0.079149015,0.06660194,-0.044743143,0.03205955,0.06332613,0.036915593,-0.04073768,0.07730641,0.022105128,0.034206327,-0.003989123,-0.010306204,0.10047615,0.035465624,0.018920673,-0.081321605,-0.06891712,-0.01971402,0.004906684,-0.04423745,0.0022044186,-0.12291987,-0.08123889,0.03678553,0.023548562,0.0255439,-0.026837783,-0.017801376,0.06605848,-0.05688944,0.02915054,-0.01995656,-0.02958605,-0.10191622,-0.020260308,0.02817132,-0.028484795,-0.037766296,-0.0035697094,-0.02890715,-0.014657056,0.036399055,-0.021150356,-0.014961435,-0.09774118,0.03673699,0.059249632,0.03745852,0.028365059,0.036305558,0.054813396,0.025827056,-0.033791512,-0.0127555635,0.015165241,-0.018361308,0.04687261,0.053312525,0.02625845,-0.016388565,0.037736155,-0.0618621,0.001125797,-0.028273767,-0.013840593,0.038635325,-0.0109708905,0.17128308,-0.014074425,0.008706443,-0.05621108,-0.018117312,0.026886038,-0.08060022,-0.003111197,0.09399265,-0.077216044,-0.0071132644,-0.0616478,-0.08038622,-0.045796406,0.0022522565,-0.054612264,0.017979499,-8.66594e-35,-0.05568092,0.0038713387,-0.039185748,-0.091113605,-0.009966651,-0.004119077,0.11447533,0.020110177,-0.012422071,0.039047696,-0.07646513,-0.013353091,0.0838375,-0.05935523,0.10310003,0.05114596,-0.0056126285,-0.077576,-0.15506165,0.015679775,-0.064504944,0.081420936,-0.030631391,-0.026446408,-0.0374269,0.022806682,0.05912787,0.020349829,-0.06894796,-0.055387057,-0.013810323,-0.013806494,0.0226384,0.08613395,-0.06177666,-0.008793392,-0.1036449,0.034630127,-0.06349012,0.051267743,0.022230327,0.055513617,0.028459698,0.13586728,-0.05640712,0.05959067,-0.04307262,0.0052067596,0.057337474,0.0947844,0.018975988,-0.036598448,0.0015823202,0.017816931,0.019776871,-0.011952755,-0.013188172,-0.012489614,0.02265001,0.0054570143,-0.017194571,0.071301095,-0.04746697,0.013330398,0.019500555,-0.049849182,-0.048780937,0.038200483,-0.018785413,-0.0919563,-0.02186921,-0.035611227,0.07754098,-0.013671699,0.012626276,0.14486116,-0.029177686,0.065827616,-0.038425248,0.017235799,0.020354634,-0.059600405,0.04016458,0.025529096,0.03892045,-0.020615824,-0.028039975,-0.030792993,-0.06326286,-0.040675156,0.050585862,-0.027762998,0.051840153,0.022355454,0.01916986,-1.476572e-08,-0.01628346,0.0041919895,0.047548722,0.058578383,0.05834775,-0.048402462,0.01188959,0.08481603,-0.079586126,-0.015727103,0.035949048,-0.03127462,0.020074166,0.029369138,-0.033330496,-0.05005528,0.014135759,0.019051988,-0.026255073,-0.022550985,-0.061805192,-0.030011412,0.03406861,-0.011489081,0.031410992,0.040450133,-0.05422127,0.057493452,0.068948954,0.0004468609,0.027132533,0.030110603,0.034455925,0.07416654,0.041333802,0.013675144,0.03350565,0.08481013,-0.048121106,-0.02674948,-0.007638687,0.0071879774,-0.037332334,0.025740827,-0.1060473,-0.033774868,0.0095347045,0.013129844,0.069040366,-0.020392392,-0.023244562,-0.0732515,0.04837764,0.02275218,-0.038537428,-0.013502021,0.015429171,0.049484752,-0.036516994,-0.056474067,-0.0045760986,-0.034665525,-0.045312703,0.106176734
alarm_remove,0.011712225,0.109775595,-0.022508282,0.0003386711,0.0980093,-0.008216018,0.1819499,-0.033875532,0.05402815,-0.057486814,-0.021014918,0.015543996,0.025314808,-0.0035688044,-0.041048665,0.0064210864,-0.03922655,-0.039739806,0.038726933,-0.045805342,-0.011593314,0.0493082,0.07416219,0.067934334,0.0038248247,-0.05595601,0.07034043,0.027199255,-0.060125843,-0.03156153,0.047357082,-0.0015969581,0.106827885,-0.054215517,0.022905707,-0.015003436,0.0681374,0.015094518,-0.017330468,-0.011049817,0.037864987,-0.025016334,-0.054746173,-0.0514777,-0.08673893,0.08284969,-0.032681372,-0.04260246,-0.01046033,-0.008721416,0.020113615,0.034427796,-0.06498724,-0.035742335,0.018424466,0.048869833,0.04496489,0.014130149,0.043937337,0.020127658,0.00895622,0.05176088,-0.022562867,0.012870328,-0.03452429,0.01631864,-0.058473036,-0.0029590784,0.11286399,0.028334577,-0.013244005,-0.014634317,0.039149135,-0.0026244086,0.021069594,-0.0013775079,0.034430407,-0.04537392,-0.018771442,0.022105567,-0.08805001,-0.0693461,0.002014592,-0.03615918,0.021626504,0.0060761594,-0.03666756,-0.04732746,0.057422478,-0.053207982,0.04000663,-0.025025045,0.011356095,0.03437699,0.036739185,-0.035611793,-0.037713647,-0.03909139,-0.12857479,0.099047594,-0.015878431,0.014854174,-0.07159545,0.08935639,0.0077098166,-0.012437929,-0.08305634,0.029808622,0.02327356,-0.04931515,-0.042160027,-0.038178362,0.07245207,0.02519796,0.010575695,0.037468832,0.017912092,0.16584508,0.038581885,0.07173205,0.13485086,-0.06073918,-0.0067453897,-0.0116097,0.011463776,-0.0011565471,0.05252949,-2.42184e-33,-0.0072869617,0.067143045,-0.10306101,-0.034151156,0.09677995,-0.008938657,-0.053208224,0.033615284,-0.01167907,0.06585141,-0.02590285,0.009815782,-0.003081801,-0.012495289,0.051647667,0.04873324,0.08500696,0.020503653,0.033500507,-0.090777054,0.006208556,0.067945816,-0.044200584,0.03145178,0.032556754,0.026032472,-0.0010773521,0.026764093,0.030552154,0.014647158,-0.011789953,0.0055986787,-0.074406266,0.045855068,0.04087124,0.013233068,-0.039150536,-0.0074213687,-0.065176375,-0.09026375,0.029375004,-0.024894577,-0.02730619,-0.011229591,0.053658184,-0.024419356,0.026144363,0.07466398,0.06973268,-0.049956653,0.09721205,-0.04807242,0.04159632,-0.023451163,-0.16387103,-0.008767793,0.032091387,-0.04452048,0.038449533,-0.05036806,-0.01393484,0.011299588,0.08595338,-0.064722255,0.055393316,-0.064845465,-0.010000827,-0.019738613,0.033221867,0.01289167,-0.053614337,-0.00015363614,0.08269218,0.005578724,-0.09998221,-0.0012876588,0.03636337,-0.029568022,0.004073632,0.017576909,0.044447925,-0.022611788,0.0021534998,-0.03867002,0.06530552,-0.059547007,-0.019814834,-0.0038483443,-0.045289293,0.12250349,-0.031781312,-0.017528322,-0.05106757,0.059952192,-0.05865364,6.5169062e-34,0.025056034,-0.021497026,-0.03982595,-0.08022975,-0.05790267,-0.0152425915,0.04642898,0.04296898,-0.11353473,-0.021503668,0.016440844,-0.0041037197,0.099246554,0.014330058,0.0742362,0.023428757,0.034254916,0.01592306,-0.09972681,0.04971489,-0.10485158,0.027734194,-0.049653612,0.02593709,-0.030524014,-0.04260774,0.054697435,0.11193201,0.005187176,-0.07665271,-0.081997566,-0.0020329661,0.009614078,0.008302398,0.0052189683,-0.034012392,0.034712173,0.02727123,-0.03378302,-0.040558092,0.0059570433,0.08570046,-0.027680032,0.00959191,-0.038662653,0.09005874,0.084075116,0.054802056,-0.03888771,0.07246791,-0.034046974,-0.08223186,0.02908656,-0.039563537,-0.00034101296,0.0002857917,0.0029950233,-0.035331737,-0.0043131504,-0.050538864,0.042784967,0.045047782,-0.044998825,0.020308474,0.007859868,-0.040997945,-0.055138037,0.08025777,0.033799455,-0.0637753,0.09705155,0.04749326,0.006650669,0.01012918,-0.08044912,-0.009102403,-0.009324141,-0.059410818,-0.11006278,-0.05493702,-0.018633904,-0.06136428,-0.0011223655,-0.023874566,-0.1174555,-0.050895695,0.050180003,0.099374376,-0.044709433,0.061665308,-0.0059692883,0.05114263,0.04812434,0.053878274,-0.02148554,-1.2604147e-08,0.0373702,-0.055934988,0.065757744,-0.05200948,0.08657102,-0.05321458,-0.022301331,0.017174855,-0.049191676,-0.10224416,0.011143582,-0.030000193,-0.0468548,0.009541835,-0.022381218,-0.054248385,-0.06648556,0.014340867,-0.011220747,-0.0727488,0.0028853856,0.017856752,-0.014791656,-0.068841815,0.041524712,-0.007948691,-0.020441359,0.06584382,0.00061210484,0.0378586,0.023108164,-0.04339049,0.042625796,-0.010485623,-0.04996988,0.035756778,0.018432757,0.017544275,0.006222698,-0.019670224,0.0831795,0.05625121,-0.031527516,0.022428755,-0.10266575,-0.08521115,0.036263302,-0.09074848,0.011808461,0.07125918,-0.01522051,0.008612812,-0.016361529,0.00015002744,-0.0076329876,-0.009950604,0.029242326,-0.04326839,-0.07575324,0.09143409,0.05183596,0.0056622364,0.014248168,-0.07614619
alarm_query,0.06786948,0.059415787,-0.03168531,0.034419466,0.02924593,-3.8302845e-05,0.20918871,0.049536724,0.04235037,-0.059088763,-0.0074146003,-0.04242871,0.06382214,-0.0443173,-0.052537978,0.012212562,0.0013015578,-0.046307933,0.036240663,-0.08536188,-0.006001458,0.0880956,0.068282716,0.050068233,-0.0841452,-0.06466619,0.08001277,0.0070440555,-0.024032267,-0.029260037,-0.030197429,0.0014708332,0.019627526,0.013350624,0.03164674,-0.022573905,0.08339621,-0.031601597,-0.006232288,-0.02705305,0.050935704,-0.05189827,-0.02139598,0.004327542,-0.08011147,0.013172921,-0.046219718,0.016583972,-0.011669529,-0.018668374,-0.06313322,-0.010128458,-0.036337618,-0.024237389,0.06095207,0.077967,-0.049374264,-0.026690295,-0.0036435614,-0.0022896877,-0.028532661,-0.008957042,0.02899132,0.01310456,-0.06795338,-0.04216962,-0.063783415,0.047063343,0.14786294,-0.007435041,-0.02616849,-0.0143905515,-0.023557508,0.0091002695,-0.030030565,0.04496291,0.019684954,-0.031447727,-0.008391397,-0.028284898,-0.12341984,-0.06929329,-0.022174634,-0.0142313065,0.10119642,-0.04417612,0.01607281,-0.004466914,0.04720369,-0.055383086,0.011172376,-0.0040571652,-0.037133522,0.032569107,0.015837148,0.026183872,-0.013416258,-0.055978175,0.0038597772,0.07678365,-0.033597916,0.053875294,-0.101188265,0.05859889,-0.020372758,-0.022860488,-0.0911136,-0.0067085093,0.016044738,-0.020794213,-0.037082102,-0.041325677,0.13763358,-0.07460116,0.029604672,0.029292889,0.0013392543,0.077009365,0.04925955,0.076559015,0.16172022,0.031585466,-0.04521057,-0.040642615,0.037219156,0.024876041,0.07940632,-2.9184722e-33,0.050815683,0.0632886,-0.045541465,-0.068244345,-0.0075339256,0.020123476,-0.054500666,0.06846789,0.0307101,0.084419064,-0.0494736,-0.011663692,0.014130026,-0.05644068,0.0038458365,0.09689121,0.052352477,0.024122046,0.038779758,-0.013961627,-0.043658905,-0.030825585,-0.03115939,0.08425948,0.09534621,0.0125025045,-0.024096398,0.029434035,0.038672686,0.010121648,-0.01161094,0.0076473253,-0.07570825,-0.009286679,0.05571112,0.029002154,-0.03427226,0.022015166,-0.060310263,-0.07162808,-0.009901951,-0.011491947,0.03810834,-0.036201503,-0.032117616,-0.037018675,-0.048861917,0.059489768,0.056813713,-0.035119187,0.07542577,-0.067035064,-0.0017892044,0.02179008,-0.050501034,0.013546112,0.039732512,0.03142187,0.02294005,0.013479609,-0.0382656,-0.04649897,0.09312588,-0.1057641,0.0731446,-0.026298935,0.012070366,0.008786565,0.10014579,0.06553397,0.03258165,-0.024152962,0.07334944,0.0029120157,-0.06175325,0.019686542,0.028784096,-0.021701247,0.039513122,0.012406596,0.08943143,-0.063435726,-0.010693141,0.021179356,0.01906234,0.016811842,0.026122572,0.058762945,-0.089741945,0.09630963,-0.055619065,-0.027633024,0.013754101,0.07783921,-0.05487921,1.5710418e-33,0.02796257,-0.031255074,-0.060517747,-0.073406376,-0.03795264,-0.040751852,0.027712123,-0.04140206,-0.11308619,0.012103783,-0.0028527456,-0.024927316,0.094361916,0.030609045,0.078530945,0.035880454,0.04305267,-0.013235689,-0.039986014,0.075491734,-0.11448506,0.013387408,-0.12949088,-0.032698225,0.033930913,0.011266618,0.05788096,0.06007395,-0.04984963,-0.052098036,-0.088324636,-0.047261387,0.003696664,0.08702701,-0.026122384,-0.0625151,0.036895007,-0.010560226,-0.026667714,-0.044339325,0.036508698,0.089552045,0.009770055,0.019750433,-0.054377507,0.03974529,0.03972618,0.07550818,-0.07120625,0.06436373,-0.03903043,-0.04684834,0.036283456,0.022218702,-0.0041565266,0.02388027,-0.034710813,-0.03823292,-0.011383198,-0.010543508,-0.020585205,0.022703957,0.029576652,-0.0018985657,-0.024792276,-0.04204993,-0.07042465,0.0069209463,0.040590454,-0.0771661,0.102809,0.030247048,0.012509774,0.024051972,-0.06616526,0.019091763,-0.035489306,-0.008107453,-0.089834295,-0.0052703065,-0.05610515,-0.026484815,0.026798857,0.03464035,-0.081269376,0.0279653,0.07833536,0.083499335,0.0013136371,0.01653027,-0.0074476474,0.038166232,-0.06853775,0.00957942,-0.008877856,-1.2487114e-08,0.0027266145,-0.008937417,0.03662743,-0.015179722,0.14232214,-0.07654658,-0.00012357667,-0.009918261,-0.090437695,-0.04063982,0.025133053,-0.045418616,0.024604922,-0.012680337,0.020793732,-0.06775716,-0.0043400032,-0.028042637,-0.036526997,-0.093076974,-0.012482973,0.05943364,-0.015883967,-0.06430768,0.043479096,0.021771325,-0.042522088,0.05126548,0.031245276,0.038322136,-0.0011433195,-0.05218929,0.049599227,-0.0121312,-0.010201544,0.002364288,0.053439207,-0.03876913,-0.017866742,-0.075163916,0.09716446,0.009434521,-0.00924497,0.047573436,-0.06375107,-0.08777622,0.04538835,-0.08745663,0.061910823,0.025685735,-0.040039524,-0.06884648,0.048478074,-0.0073716906,-0.020133764,0.0053663487,0.035130687,-0.07932029,-0.05227753,0.056834023,0.038217034,-0.0022785559,-0.053665742,-0.019292997
news_query,0.06893107,0.055928748,0.016117375,0.10793728,-0.031709544,0.023933819,0.07781495,-0.003860208,0.015816627,-0.008064812,0.058776412,-0.0005740516,0.026944691,-0.047444064,-0.036684405,0.010682454,0.0003014278,0.020168526,-0.07862128,-0.06541638,-0.042948607,0.075013585,-0.0106967455,0.03594782,-0.013722306,-0.03125387,0.006505243,-0.037445094,0.034005713,-0.053982098,-0.044234984,-0.033575572,0.004191988,0.009456403,0.0457758,-0.073361516,0.042279784,-0.14269525,0.0134407375,0.034526646,0.0789598,-0.029997574,-0.0032283005,-0.048942517,-0.063340224,0.010420386,-0.04123102,0.10218245,0.1042593,0.015684305,-0.112149104,-0.004765755,-0.020068096,0.0125442855,0.067874685,-0.022863973,-0.18395396,0.017841883,-0.04332441,-0.044753928,0.0320818,-0.0015553528,0.013777317,-0.0005940026,-0.08428612,-0.06497097,-0.037942152,-0.009805201,0.08479033,-0.075076304,-0.0057321056,0.03188237,0.00014905065,0.0062531563,-0.051406275,-0.0919863,0.04592444,-0.017982759,-0.007982558,0.010443763,-0.02239783,-0.023605738,-0.038744014,-0.046841178,0.08401278,-0.07376548,-0.005653682,-0.046069607,0.012200601,-0.033941645,-0.0358019,0.024109164,0.005409745,0.010786736,-0.05589692,0.0027017088,0.0023136332,0.015811682,0.022046372,0.09643585,0.015802879,0.005606439,-0.025171312,-0.007783665,-0.06370805,-0.07466637,-0.11573347,0.035110857,-0.044591274,0.021124383,-0.07349074,0.0576112,0.04939929,-0.12640335,0.0018110351,-0.022758262,-0.006372155,0.034830723,-0.014415332,0.0072990856,0.031629108,0.06743829,-0.104339585,0.010838851,-0.018328391,-0.018002577,0.045028385,-3.5681455e-33,0.04361024,0.007874255,-0.020534351,-0.038288604,0.012970671,0.060568895,-0.018556321,-0.01083434,0.037411682,-0.038906746,-0.0077356454,-0.0043277866,0.018496761,-0.04138285,-0.012204795,-0.04353174,0.0072635775,0.019243,-0.013011134,0.02922239,-0.04189617,-0.010147769,-0.0010353595,0.08344144,0.049102306,0.05115485,0.03370213,0.0036913184,-0.04807865,0.02025531,-0.04878405,0.029362177,-0.030597888,-0.05437692,0.029717602,0.044753663,-0.07578012,-0.048395496,-0.0032080682,0.024774026,-0.013004927,0.02443294,0.0056096474,-0.052101165,0.00038894286,0.068431124,-0.020086577,-0.055020943,-0.0343163,-0.10544918,0.040767685,-0.053983368,-0.070762195,0.031147605,0.031917773,-0.021661405,0.026452372,-0.022022901,0.010186431,0.032475684,0.00021412513,-0.027895274,0.05800796,-0.039881606,0.00041155596,0.060765624,0.015287176,0.11090134,0.054930657,0.07958343,0.08241572,0.012028144,0.040579244,0.028193273,-0.04786973,0.040629745,-0.015060688,-0.074262775,0.050476026,0.11997837,0.043903176,-0.087621,-0.015971202,0.01677077,-0.0005718252,0.030743597,0.031103034,0.03297603,0.028315347,0.009049782,-0.0728815,0.088327676,-0.018482894,0.0017238836,-0.019875063,1.4550924e-33,-0.06475765,-0.010816637,-0.09632752,-0.068059504,-0.06631062,-0.0041385447,-0.027907262,0.057666972,-0.014305045,0.02819382,0.027841004,-0.09985912,0.011597586,-0.02026287,0.06292006,0.091444924,0.039744064,-0.03780264,-0.102982886,0.110159524,-0.10613342,0.025774373,-0.11946613,0.046105757,0.10374402,-0.024052324,0.08236806,0.051649474,-0.0025491412,-0.012039909,-0.005904379,-0.0494009,-0.048019078,0.0577135,0.003589949,0.057543155,0.0005414553,-0.059921112,0.03604625,-0.004349421,0.08795866,0.02183618,0.04053118,0.072132975,-0.08142474,0.055693664,0.0005967546,0.060881987,-0.02544771,0.009676659,0.013786763,-0.016744774,0.004546304,0.050870083,0.012314392,0.010292315,-0.11611179,-0.011598756,-0.017829299,0.0027644872,0.010588239,0.1009709,-0.057032224,-0.028749619,-0.05347211,-0.07436572,-0.016135355,-0.010621511,0.0547093,0.013602939,0.044580355,0.0008754131,0.04679082,-0.02613478,-0.03847087,0.12110097,-0.03573732,0.04991618,0.00047492064,0.07370168,-0.079091504,0.030524762,0.07959123,0.00266332,0.04164909,0.018707627,0.03535201,0.0038581549,0.0050535738,-0.043552972,0.0732203,-0.076510124,-0.0021173498,0.04055607,-0.02578757,-1.2119355e-08,0.0054519908,-0.041329682,-0.03969393,0.023157187,0.079883896,-0.0050538415,0.04806307,-0.029744115,-0.07252447,0.049448937,-0.026975922,-0.033346184,-0.07870013,-0.0005509409,0.03044056,-0.03811835,-0.030931713,0.02366191,0.04424508,-0.121578425,0.017909355,0.008668991,0.034528296,-0.009762144,0.083236896,-0.008859808,-0.03985023,0.030978847,0.023961887,0.038323533,0.0009224405,-0.027211037,-0.08527039,0.0025069069,0.09185411,-0.021938525,0.06693783,0.015051453,-0.06888958,-0.038981352,0.09695707,0.033791266,0.04843969,0.09575224,-0.03987612,-0.021067247,0.07989568,-0.09132298,0.07601305,-0.051938806,0.0024927722,-0.016687164,0.13325024,-0.06322533,-0.08596583,0.05743405,0.027872,0.034420174,-0.07095553,-0.038670473,-0.043767836,0.035888545,-0.026249848,0.09302621
music_likeness,-0.010104993,0.039904635,0.0001237152,-0.04803019,-0.060222305,0.08676493,0.10154211,-0.028118838,-0.016277913,-0.07021704,-0.0045380327,-0.06828125,0.057480365,-0.055786252,-0.05352294,0.017253201,0.023370195,0.062599786,0.007052359,0.02162653,-0.050434127,0.080364175,-0.0056856046,0.031359304,0.0029554442,0.049619813,0.011286677,0.081849955,-0.0121482555,-0.09465998,-0.0058213947,0.07222974,0.030167574,-0.07789157,-0.024129717,0.022063483,-0.041463204,-0.028659185,-0.06410214,-0.039142556,-0.010251609,0.015390469,-0.045373064,-0.0032861629,-0.06318454,-0.01539375,-0.07728912,-0.0076006576,-0.023729082,0.0672517,-0.039926015,-0.0266227,-0.053572953,0.0377603,-0.027393665,-0.008153245,0.07147187,0.04279487,0.06530737,0.08870621,-0.010150088,-0.013620073,0.01121308,0.0048667723,0.012973632,-0.026526744,-0.05775798,-0.05073898,-0.04253289,0.013242707,0.08253735,-0.009258419,-0.013058571,0.015204795,0.03446506,-0.099324554,-0.03515162,-0.06534491,-0.066679865,-0.04795319,-0.0020588427,-0.03250863,-0.0359997,-0.09480869,0.0071537336,0.04798777,-0.050106335,-0.019872896,-0.07034249,-0.04389147,-0.069137506,0.015269174,-0.016082594,-0.024399592,0.007780765,0.02389828,-0.009519271,-0.056034617,0.016787274,0.10906433,0.039329093,0.011472413,0.041115202,0.07394568,0.030425033,-0.04484161,-0.0047871666,0.0808379,-0.017844103,-0.12435131,0.050372783,-0.0038125538,-0.06642316,0.062538885,0.07466283,0.03851249,0.021039426,-0.0051616034,0.04525865,-0.017712606,0.1100042,-0.028930742,-0.038429398,0.01731583,-0.093232684,-0.08441559,-0.013950472,-3.3238576e-33,0.022529412,0.014099666,0.084948495,0.010093967,0.15558587,-0.06496467,-0.049002547,0.07713662,-0.017186522,0.013343322,0.0124489395,0.016523017,-0.044001836,0.0646311,-0.028791685,-0.004398489,0.014492117,0.02293869,-0.03565823,-0.023755703,-0.016871946,0.056286547,0.0056588547,0.05336552,0.005087281,0.047270123,0.021783466,-0.06988891,0.047709785,0.0058214865,-0.034483604,0.012560016,0.06530987,-0.04729466,0.008481065,-0.0049706,-0.018929563,-0.03933687,-0.01526552,-0.04194566,0.017396461,0.010847914,-0.084996484,-0.052836265,-0.041345067,0.07892249,0.08732904,0.06011059,0.03692446,0.05525215,0.05187983,0.03793218,-0.06575923,-0.001513323,-0.009502487,-0.021285236,-0.024569599,0.038851127,0.021231731,-0.06969176,0.11943254,0.051831663,0.038529135,-0.045233764,0.00080775574,0.0057702702,0.07517789,-0.13106772,0.12802438,0.005590381,-0.0984032,0.007430984,-0.03338042,0.027355703,-0.059070732,-0.021091377,-0.025533654,-0.071648136,-0.029490396,0.08879367,-0.14692223,0.03894374,-0.05313881,-0.021070493,-0.023944756,-0.010680096,0.005450009,-0.12337514,-0.043517157,0.028939847,-0.07079074,0.041518122,-0.034237992,0.007550808,-0.067085154,9.954814e-34,-0.0021288688,-0.009125341,0.08934393,-0.051506016,0.022790752,-0.003631316,0.06793558,0.08927506,-0.0007311465,0.041172814,-0.020332756,-0.033948664,0.01395417,-0.098028846,0.008573158,0.014970105,-0.0072730393,0.040244788,-0.02665881,0.0017573518,-0.09304265,0.018431213,0.046554226,-0.04148245,-0.08582486,0.03210888,0.11982521,0.0012873088,0.013200015,0.016209751,0.060163118,-0.025743576,-0.07282683,-0.06078288,-0.0036397122,-0.009868367,0.055074606,-0.02185943,-0.0075723403,-0.029418489,0.00033708574,0.05764077,0.06833735,0.08237705,-0.020403892,-0.06868869,-0.0031466086,0.08469946,0.05416754,-0.005816012,0.002588785,-0.077640444,0.048726637,-0.06633513,-0.007935818,0.07083167,-0.004148174,-0.05358524,0.02507905,0.04819369,0.022065459,0.029487088,-0.08799442,-0.04293978,-0.011400707,0.041340828,0.025225027,0.021066763,-0.017662331,0.05936935,0.03775381,0.032027025,0.006218529,0.035357807,-0.08863518,-0.024881447,-0.014430513,0.0532796,0.002325444,-0.037325308,0.0027850484,0.0060097575,-0.03801399,-0.03566155,0.044333056,-0.01177047,0.055115167,0.0150931375,0.001522825,0.0486616,0.03490346,0.06839124,-0.002544006,0.005315284,-0.03966092,-1.2647698e-08,-0.021137418,-0.022584453,0.02436722,-0.030234402,-0.013445569,0.043011166,0.06425667,-0.13374805,-0.035927042,0.023108587,-0.0035781553,-0.03493407,0.07548734,0.04603312,-0.032671634,-0.054766946,-0.060257804,0.090137824,-0.0028831663,0.008978904,-0.003107166,0.047093578,0.022740396,-0.11934771,-0.030004842,0.040563066,-0.009998498,0.06064006,-0.03642137,0.075050145,-0.00091818825,0.09263803,-0.0067684776,-0.042877037,0.053287398,-0.08230201,-0.059575178,-0.0042060087,-0.08250659,-0.027293961,0.06438939,0.07021155,0.06968284,0.020082556,0.039791495,-0.04180006,0.16374381,-0.0055042338,0.012006702,0.06773724,-0.08472362,-0.066919304,-0.009240544,0.04343919,-0.0353336,-0.0073689795,0.018321916,0.12751868,-0.021075778,-0.013215716,0.009342328,0.046385333,0.06871865,-0.021010187
music_query,0.09113732,-0.0018550092,-0.008952123,-0.0014280801,-0.08230468,0.09956038,0.0978778,0.011607457,-0.026659964,-0.048654437,0.022426456,-0.030715756,0.08252192,-0.11131968,-0.054352436,0.039778568,-0.009239005,0.016514368,-0.020939587,-0.040883403,-0.04175357,0.04276946,-0.031951874,0.024504077,-0.015390194,0.039240208,-0.0146734575,0.06511221,0.0022386068,-0.017739538,-0.018835627,0.055698693,0.06883028,-0.012101043,-0.009353892,-0.051933665,-0.032559138,-0.10068694,-0.04783171,-0.035961647,0.0067035593,0.03441344,0.022802575,-0.033164956,-0.11678411,-0.046307456,-0.13607547,0.008984725,0.05213999,0.032761782,-0.06881942,-0.006747762,-0.019133044,0.050089847,-0.06093241,-0.03037334,-0.06324975,0.07642643,0.025232844,0.057367023,-0.015501029,-0.0715128,0.036490493,-0.01653989,-0.0009974099,-0.07101534,-0.06244756,0.01972157,0.044269226,0.023717057,0.061911926,-0.005676955,-0.024026586,0.054195683,0.044429727,0.024621619,-0.026890568,-0.0482909,-0.08940392,-0.0006407266,0.0014446928,-0.007907976,-0.05941121,-0.098562695,0.062657334,-0.05146306,0.0009627964,-0.039533954,-0.04716858,-0.08852062,-0.06647872,0.037042636,-0.035681035,-0.0016268445,0.02831504,0.061791014,0.037245773,-0.073042914,0.07690465,0.06521481,0.0387812,0.058938574,-0.032026343,-0.010188939,-0.09632087,-0.04802611,0.0062736664,0.10954085,0.0044218637,-0.07425832,-0.015224271,-0.0006722132,0.021159101,-0.015729856,0.022650488,0.04150075,0.032142133,0.06198633,0.063463435,-0.011370862,0.08418025,-0.0024163225,-0.06762695,-0.0024161697,-0.045919925,-0.01636522,0.014195543,-2.6865797e-33,0.04508634,-0.08426597,0.070056945,-0.06711652,0.07190898,-0.030613303,-0.055440165,0.12827039,0.040346507,0.044383638,0.07498631,-0.004522998,0.04659921,-0.014231535,-0.015021336,0.009024337,-0.00060085865,-0.027413,0.0141139515,0.005046054,-0.038268987,-0.017909316,0.038555477,0.10906387,0.08350837,0.055290066,-0.02964152,-0.032378472,0.027693266,-0.027627392,-0.0978073,-0.060628302,-0.02648288,-0.08290043,0.020702658,0.08613539,0.0014743636,0.01109509,-0.02994076,-0.060982708,-0.012086954,0.008594091,-0.014360789,-0.05900023,-0.07250957,0.028116547,-0.066411205,-0.021365823,-0.0009944541,-0.01566991,0.047411006,0.00832811,-0.027183512,0.051402837,0.04734722,0.0031793069,0.017983565,0.065692216,-0.0050496617,0.011100772,0.09731346,-0.009546148,0.10561324,-0.07243087,0.008657476,0.054672096,0.067179844,-0.03373192,0.1403364,0.06387818,-0.038741708,-0.010846264,0.0250509,-0.01212189,-0.016218325,0.037637383,0.0018844546,-0.09375795,0.07920673,0.050534938,-0.045590483,-0.029845454,-0.027899267,0.038283177,-0.056074016,0.026120096,0.019896545,-0.06891887,-0.047520094,-0.022727884,-0.0946881,0.08641617,-0.019703355,-0.00983139,-0.009751646,5.817374e-34,0.019444063,0.016394356,0.04953544,-0.05247789,0.02601644,-0.01666923,0.054528214,0.030046497,0.008056527,0.06449857,0.061962284,-0.0805882,0.02466718,-0.11051645,0.058646306,0.061144605,-0.06862253,0.010903018,0.0014394119,0.024737434,-0.14314154,0.030406084,0.030615281,0.007126684,-0.03569047,-0.025928577,0.03404643,-0.0021179006,-0.029314399,0.016154129,0.08014366,-0.07157917,-0.064044744,-0.07697859,-0.010815283,-0.033792544,0.026762223,0.004924877,-0.002943712,0.021521838,-0.010821127,0.07802908,0.05724556,0.078236036,-0.042111155,-0.042190004,0.014228122,0.10025194,-0.004390235,-0.024595495,0.06683552,-0.06867425,0.029100124,-0.056246813,0.008463343,0.0050265323,-0.04482767,-0.02533815,-0.059085835,0.027273033,0.0034809734,0.075475276,-0.06566794,-0.083947815,-0.04755084,0.018738333,0.033826657,0.025042387,-0.02185658,0.020625489,0.021491695,0.0056030364,0.04572487,0.0909157,-0.08992351,0.07972185,-0.044315312,0.04045782,-0.01989168,-0.01233699,0.009438554,0.04333452,-0.0063765743,-0.04694918,0.018959552,0.016609764,0.039869446,0.011962875,-0.04840865,0.024085587,0.082700446,-0.02361556,-0.0072053517,-0.007670307,-0.01177721,-1.141343e-08,-0.006698468,-0.0046400866,-0.014183298,0.007721413,0.054833584,0.05638039,0.046714097,-0.016123053,-0.023853725,0.024301985,0.049320903,-0.08586147,0.041533254,-0.0020795357,-0.10978953,-0.016284958,-0.01387443,0.094645314,-0.03399007,-0.02832295,-0.022996215,0.06500298,0.0489725,-0.06871221,0.020618474,0.050804704,-0.018558772,0.05458278,0.03569694,0.026022492,0.0128308665,-0.012391562,0.029307475,-0.019482957,0.03931766,-0.05675463,-0.001738162,-0.053659685,-0.12157725,-0.0241002,0.019904438,0.10375936,0.02529864,0.0069893007,-0.05215319,-0.104116164,0.11761389,0.032321468,0.042719748,0.054112796,-0.08122585,-0.058890987,-0.007850526,-0.028334208,-0.044862546,0.0074615204,0.0063843597,0.15867625,-0.05774572,-0.03946239,-0.056732845,-0.016731044,0.027618712,0.065817796
iot_hue_lightup,-0.049134593,0.018197296,0.04959069,0.024527049,0.09673421,-0.11430425,0.1086702,-0.019089194,-0.0017599935,-0.0075217187,0.04481658,-0.014270178,0.014225982,-0.032687154,0.04627133,0.10114737,0.03869406,-0.10027358,-0.037612487,-0.08286983,-0.025059072,0.004258708,0.023262678,-0.067962825,-0.034697033,-0.025645249,0.07478193,-0.011173728,-0.028201705,-0.049790233,0.05309553,-0.0009511867,0.024987489,-0.022626074,-0.023226352,0.0003365036,0.03407544,-0.09382374,-0.10960501,0.052724242,-0.0048203175,-0.08330938,-0.025348598,-0.059224654,-0.013853836,0.03318161,-0.009344021,-0.057057317,-0.015490863,-0.08153533,0.024543349,-0.042872947,-0.016159514,0.040657245,0.001220433,0.07047218,-0.04473512,0.01438874,0.09259233,-0.018147083,-0.020353362,0.04566513,0.044640344,-0.030008331,0.0018353515,0.08778647,-0.009849682,-0.03393275,-0.034126226,-0.061877612,0.024807943,0.024508419,-0.0120718125,0.05902694,0.07077742,-0.01240156,0.06618617,-0.019334089,-0.0043219556,-0.07976476,-0.008370406,0.03618069,0.0048149377,0.06871375,0.13215734,0.016780093,-0.045599077,0.040993672,-0.044335373,0.024181724,-0.07609704,-0.002393317,-0.017106047,3.9926857e-05,-0.0017875778,-0.009905134,-0.026294613,-0.11423871,-0.07750601,0.0025399984,0.02861614,-0.043614153,-0.08241138,0.053857975,0.009851082,-0.016872384,-0.025375716,0.07496406,0.0051146243,-0.0064906506,0.08442369,-0.042529758,-0.0037545282,-0.06088462,0.009678705,0.046179954,-0.015287495,0.04251205,0.0400318,0.044089414,0.11458889,-0.07202269,-0.090213835,-0.02305853,0.041851934,-0.04722034,0.012151653,-1.0106291e-33,0.10581024,0.049114816,-0.08590237,0.010424279,0.034178812,0.008405154,0.012056332,-0.0425605,-0.105059065,-0.0736281,0.010921029,0.06465033,-0.06697926,-0.0113291405,0.024617922,-0.10175362,0.064885534,0.058982164,-0.019320445,0.041890815,-0.055654578,0.008438058,-0.014456737,-0.024691438,-0.0006282996,0.07764315,-4.4518307e-05,0.007748004,0.056263447,0.009918895,0.027952522,0.046463553,0.07060764,0.044379964,0.0072691403,-0.043769278,-0.016146423,0.0012989023,-0.0042915144,-0.009585722,-0.04487754,0.08035732,-0.09597767,-0.0011827536,0.024330037,0.050343223,-0.017786926,-0.04623458,0.0376776,-0.014303024,-0.11112756,-0.04780487,-0.03310548,-0.014737513,0.005012818,-0.00766854,-0.0026449056,2.8215038e-05,0.07458525,-0.048419774,0.024762852,0.026488604,0.058254734,0.019721163,0.039694924,-0.0156706,0.02238418,0.024397718,-0.041845717,0.019392686,-0.035025228,0.012596542,0.042011984,0.011458027,-0.006854349,-0.0538179,0.03739151,-0.024702387,-0.0753822,0.00033891323,0.01951381,-0.057564784,0.019188369,-0.082279034,0.0070418445,0.003712542,-0.040013634,-0.008860302,-0.14674534,0.043456815,0.023170132,0.079395734,0.0466988,-0.09152811,-0.15588386,3.3595782e-34,-0.025349949,-0.0020605072,-0.11150154,0.04998327,0.017409833,-0.02043385,0.053169273,0.03003613,0.03305681,0.1200268,0.1008816,0.031043867,-0.06715998,-0.10049702,0.025530903,0.021357998,0.0049490035,0.026614513,-0.014351963,0.041370064,-0.18812233,-0.042186014,0.0144797005,-0.028976023,-0.09259315,0.09228342,0.022294797,0.008086085,-0.025517112,-0.0765602,-0.07905065,0.023727506,-0.009406614,0.0062162317,0.087544486,0.03322311,0.07446172,-0.07554277,-0.07745314,0.047420852,0.10264557,-0.02240922,-0.02967801,-0.016446874,-0.1011964,0.010180148,-0.07631108,0.04822979,-0.043924488,0.0016839989,0.11548894,-0.032565583,0.005668576,0.042702314,-0.038877457,0.015782932,0.091365345,0.092873305,-0.031806525,0.053187735,0.07285519,-0.06830798,-0.018988172,0.094549276,-0.010100451,0.052549053,0.014723076,0.016070414,0.07254913,0.015827153,0.0133457435,-0.04312371,0.0700976,-0.023616461,0.042860463,-0.0060446737,0.017716669,0.015553318,-0.05189316,0.015120228,-0.030769667,-0.03724798,0.013328541,-0.044412952,0.033980798,-0.094078936,-0.0014078232,0.06695023,-0.04249315,-0.026759746,-0.067145646,0.024765005,0.021962982,0.040854465,0.020158252,-1.4985245e-08,0.011590251,-0.11190733,0.002872817,0.02120538,0.0340161,-0.06829283,0.10048109,-0.012946086,-0.009711247,0.013828357,-0.025652515,0.020318411,0.018307585,-0.0021718694,0.1082467,0.008518765,-0.020518627,-0.012832123,0.019347182,-0.010900859,-0.028564114,0.02575941,-0.0121154925,-0.028628305,0.016560445,0.06754764,-0.020673726,0.049587738,-0.014574386,0.00097298244,0.0252452,0.0146584585,0.008602551,-0.042458966,-0.007025613,0.06666686,-0.09010508,0.01972155,0.0072516697,-0.026455367,-0.0673786,0.05283586,-0.04653152,-0.0011164492,0.026716266,-0.0030289586,0.019180344,0.008752523,-0.026728265,0.02128425,-0.015048921,-0.018054757,0.04615771,-0.014394584,-0.006359668,-0.073670186,0.10814426,-0.058002118,-0.0015690685,0.055976577,0.06663354,0.00998735,0.017025072,0.053375613
takeaway_order,-0.053143136,0.036972612,0.033330727,0.05299055,0.056084797,0.028866526,0.13641913,-0.06723766,0.03383562,-0.002097827,0.064313576,0.03946768,0.0026733617,-0.03624347,-0.018369708,0.022094492,-0.017664438,-0.028222764,-0.06654521,-0.0034501173,-0.024421485,0.016066281,-0.06837428,0.036298703,0.05682144,-0.014125296,-0.012815235,0.044392318,-0.049892195,-0.11453656,-0.0024659266,0.0051965355,0.036892924,0.031996675,-0.004878822,0.025734277,-0.063508764,-0.11121625,0.019139426,0.011244331,-0.045616552,0.040690668,0.018956268,-0.03339123,-0.038921066,0.018574178,-0.034443837,0.01139933,0.05886428,0.02119812,-0.045466386,0.035011645,-0.08141239,0.1230383,-0.04578871,-0.009583718,0.0017981601,-0.08471398,-0.06603497,0.001411071,-0.023020165,0.012129468,-0.0370204,-0.00741044,-0.03528703,-0.056131784,-0.02670395,-0.049673665,-0.01095374,0.034170806,0.076529324,0.0072211875,-0.015686061,0.015860602,0.01315178,0.008285156,0.035094645,-0.031171868,-0.096689634,0.0012682066,-0.054816898,-0.051227253,-0.092835784,-0.005801638,-0.0002621477,-0.019832429,-0.024665734,0.014825554,-0.026845688,-0.040837366,-0.042264543,0.048520736,0.033195544,0.018021343,-0.04021803,-0.037130892,0.06125258,-0.0065714573,-0.073926575,0.122762665,0.07661629,0.09960117,-0.026914898,0.015938157,0.03495625,-0.011532431,0.018887153,-0.06380115,0.036714517,-0.025759492,-0.07191436,0.044918276,0.0143105285,0.02344305,-0.03994017,0.08971926,-0.03293884,0.04618874,0.12324747,-0.08237923,0.014699556,0.0008808383,0.007074741,-0.023864577,-0.102919295,-0.006441705,0.09236861,-2.0265693e-33,-0.05015421,-0.019928476,-0.055321515,0.059748035,0.10842725,-0.025256053,-0.008918648,0.00092211197,-0.057764143,0.008521991,-0.06423986,-0.06724745,0.049640678,-0.015488792,-0.00035393148,-0.0056359596,0.11929173,-0.0040528798,0.05346111,-0.05869533,0.02147514,0.011681441,-0.024379808,0.06441895,-0.033452,0.02176053,-0.061552987,-0.023904556,0.022780318,0.01911864,0.008482625,-0.028158829,-0.078407384,-0.027578266,0.011323996,-0.014766446,-0.053949527,-0.040801547,0.025999429,0.01621873,-0.053109545,0.049767885,-0.118635744,0.02144507,-0.03350331,0.03338747,0.06940369,0.023244482,0.05550485,-0.0041917637,-0.07532953,-0.042813893,0.05184377,0.005862035,-0.047743805,-0.12720236,0.044351235,-0.018576412,0.04577123,-0.044057198,0.07610596,0.090864435,-0.0017311077,-0.0020467895,0.029690031,-0.07630414,-0.045335334,-0.001352279,0.027826255,-0.011154671,-0.05199121,0.09800667,-0.0069495076,0.052169476,0.019528229,0.019709412,0.014544302,-0.037413612,0.11149634,-0.08135804,-0.008491603,0.022554245,-0.010662282,0.030250674,-0.047503807,0.04811802,0.035491306,-0.08573048,0.022748709,-0.03184201,-0.09520287,-0.011677545,0.059191123,-0.0556694,0.023009025,1.124542e-33,-0.038876735,0.0044102306,-0.010777654,-0.05755225,0.04752573,0.01733783,0.049526088,0.039071333,0.0036026614,0.072054595,-0.14268978,0.029336818,0.10544806,-0.050937086,0.14889085,0.042299204,0.070276715,-0.07250707,-0.1403078,-0.009934936,-0.02482373,0.078058414,0.0023071636,-0.0111647975,-0.053914186,0.03311183,0.16760886,0.08649632,-0.060544223,-0.06347035,-0.02406394,0.040237688,0.046095427,0.096131936,-0.015907194,-0.0020895454,-0.07905832,0.08736633,-0.06850228,0.12235048,-0.011471222,0.070118025,-0.01988795,0.09020001,-0.060318656,0.0156196505,-0.0065241735,0.015837388,0.012436888,0.12601064,-0.0058127637,0.018572867,-0.040399626,-0.017182956,0.01956362,0.040282845,0.0052462453,0.01358682,0.008242743,0.009818552,-0.014689837,0.06454393,-0.024807986,-0.007685695,0.032232363,0.009991827,-0.03663766,0.0062844516,-0.0035530173,-0.1132824,-0.03388153,-0.057710785,0.06467354,0.016640209,0.027853971,0.04326519,0.04002854,0.025475858,-0.029477773,-0.019961629,0.032089308,-0.015525386,0.025669834,0.022131147,0.024156338,-0.04379699,0.045826785,-0.038147967,-0.026366517,-0.05857312,0.057005927,-0.0077102906,0.13263473,0.027455885,0.0041113654,-1.3908984e-08,0.014062241,-0.04755813,0.11061224,0.06481411,0.044124477,-0.029764336,-0.0068973918,0.042436793,-0.0266344,-0.012410882,0.0051253224,0.017829802,-0.016539022,8.647701e-05,-0.061722588,-0.04585614,0.0182713,-0.054357804,-0.057472657,-0.027810376,-0.04696434,-0.020361297,0.12844636,-0.017437885,0.022103248,0.006919968,0.026024831,0.0852923,0.053141866,-0.00018942246,0.021038849,0.08461251,-0.018526843,0.01989858,-0.0005159431,0.014474618,-0.044103995,0.06610604,-0.009904814,-0.04829622,-0.024471976,-0.009103551,-0.0331941,0.010112883,-0.09047159,-0.01420207,-0.043806978,-0.05901092,0.038577493,-0.0019880412,-0.07393084,-0.081111826,0.04622771,0.058903288,0.022403488,0.02274959,-0.012568357,0.00040281177,-0.0034726772,-0.047613025,0.026960064,-0.02980826,-0.0037852954,0.024694663
